digraph Tree {
node [shape=box, style="filled, rounded", color="black", fontname="helvetica"] ;
edge [fontname="helvetica"] ;
0 [label=<X<SUB>6</SUB> &le; 0.502<br/>gini = 0.586<br/>samples = 14982<br/>value = [2633, 8386, 3963]>, fillcolor="#b0f5cc"] ;
1 [label=<X<SUB>5</SUB> &le; 0.157<br/>gini = 0.489<br/>samples = 11601<br/>value = [2443, 7805, 1353]>, fillcolor="#8bf0b5"] ;
0 -> 1 [labeldistance=2.5, labelangle=45, headlabel="True"] ;
2 [label=<X<SUB>0</SUB> &le; 0.653<br/>gini = 0.364<br/>samples = 9436<br/>value = [832, 7380, 1224]>, fillcolor="#6beca1"] ;
1 -> 2 ;
3 [label=<X<SUB>7</SUB> &le; 0.413<br/>gini = 0.208<br/>samples = 7259<br/>value = [179, 6423, 657]>, fillcolor="#52e891"] ;
2 -> 3 ;
4 [label=<X<SUB>6</SUB> &le; 0.093<br/>gini = 0.136<br/>samples = 6149<br/>value = [175, 5707, 267]>, fillcolor="#48e78a"] ;
3 -> 4 ;
5 [label=<X<SUB>1</SUB> &le; 0.63<br/>gini = 0.06<br/>samples = 4699<br/>value = [93, 4554, 52]>, fillcolor="#3fe685"] ;
4 -> 5 ;
6 [label=<X<SUB>7</SUB> &le; 0.0<br/>gini = 0.242<br/>samples = 493<br/>value = [50, 426, 17]>, fillcolor="#57e994"] ;
5 -> 6 ;
7 [label=<X<SUB>5</SUB> &le; 0.046<br/>gini = 0.497<br/>samples = 97<br/>value = [37, 58, 2]>, fillcolor="#baf6d3"] ;
6 -> 7 ;
8 [label=<X<SUB>9</SUB> &le; 0.119<br/>gini = 0.296<br/>samples = 61<br/>value = [11, 50, 0]>, fillcolor="#65eb9d"] ;
7 -> 8 ;
9 [label=<gini = 0.0<br/>samples = 3<br/>value = [3, 0, 0]>, fillcolor="#e58139"] ;
8 -> 9 ;
10 [label=<X<SUB>11</SUB> &le; 167196.5<br/>gini = 0.238<br/>samples = 58<br/>value = [8, 50, 0]>, fillcolor="#59e995"] ;
8 -> 10 ;
11 [label=<gini = 0.5<br/>samples = 8<br/>value = [4, 4, 0]>, fillcolor="#ffffff"] ;
10 -> 11 ;
12 [label=<X<SUB>1</SUB> &le; 0.627<br/>gini = 0.147<br/>samples = 50<br/>value = [4, 46, 0]>, fillcolor="#4ae78c"] ;
10 -> 12 ;
13 [label=<X<SUB>10</SUB> &le; 147.017<br/>gini = 0.115<br/>samples = 49<br/>value = [3, 46, 0]>, fillcolor="#46e789"] ;
12 -> 13 ;
14 [label=<X<SUB>10</SUB> &le; 80.025<br/>gini = 0.049<br/>samples = 40<br/>value = [1, 39, 0]>, fillcolor="#3ee684"] ;
13 -> 14 ;
15 [label=<gini = 0.32<br/>samples = 5<br/>value = [1, 4, 0]>, fillcolor="#6aeca0"] ;
14 -> 15 ;
16 [label=<gini = 0.0<br/>samples = 35<br/>value = [0, 35, 0]>, fillcolor="#39e581"] ;
14 -> 16 ;
17 [label=<gini = 0.346<br/>samples = 9<br/>value = [2, 7, 0]>, fillcolor="#72eca5"] ;
13 -> 17 ;
18 [label=<gini = 0.0<br/>samples = 1<br/>value = [1, 0, 0]>, fillcolor="#e58139"] ;
12 -> 18 ;
19 [label=<X<SUB>9</SUB> &le; 0.437<br/>gini = 0.426<br/>samples = 36<br/>value = [26, 8, 2]>, fillcolor="#eeae80"] ;
7 -> 19 ;
20 [label=<gini = 0.0<br/>samples = 25<br/>value = [25, 0, 0]>, fillcolor="#e58139"] ;
19 -> 20 ;
21 [label=<gini = 0.43<br/>samples = 11<br/>value = [1, 8, 2]>, fillcolor="#7beeab"] ;
19 -> 21 ;
22 [label=<X<SUB>11</SUB> &le; 149044.0<br/>gini = 0.134<br/>samples = 396<br/>value = [13, 368, 15]>, fillcolor="#48e78a"] ;
6 -> 22 ;
23 [label=<gini = 0.494<br/>samples = 9<br/>value = [4, 5, 0]>, fillcolor="#d7fae6"] ;
22 -> 23 ;
24 [label=<X<SUB>9</SUB> &le; 0.069<br/>gini = 0.118<br/>samples = 387<br/>value = [9, 363, 15]>, fillcolor="#46e789"] ;
22 -> 24 ;
25 [label=<gini = 0.494<br/>samples = 9<br/>value = [4, 5, 0]>, fillcolor="#d7fae6"] ;
24 -> 25 ;
26 [label=<X<SUB>3</SUB> &le; -15.911<br/>gini = 0.101<br/>samples = 378<br/>value = [5, 358, 15]>, fillcolor="#44e688"] ;
24 -> 26 ;
27 [label=<gini = 0.48<br/>samples = 5<br/>value = [0, 2, 3]>, fillcolor="#d5bdf6"] ;
26 -> 27 ;
28 [label=<X<SUB>12</SUB> &le; 4.5<br/>gini = 0.088<br/>samples = 373<br/>value = [5, 356, 12]>, fillcolor="#42e687"] ;
26 -> 28 ;
29 [label=<X<SUB>7</SUB> &le; 0.122<br/>gini = 0.083<br/>samples = 371<br/>value = [4, 355, 12]>, fillcolor="#42e687"] ;
28 -> 29 ;
30 [label=<X<SUB>9</SUB> &le; 0.888<br/>gini = 0.065<br/>samples = 331<br/>value = [4, 320, 7]>, fillcolor="#40e685"] ;
29 -> 30 ;
31 [label=<X<SUB>5</SUB> &le; 0.134<br/>gini = 0.06<br/>samples = 328<br/>value = [4, 318, 6]>, fillcolor="#3fe685"] ;
30 -> 31 ;
32 [label=<X<SUB>11</SUB> &le; 457113.5<br/>gini = 0.054<br/>samples = 325<br/>value = [4, 316, 5]>, fillcolor="#3fe685"] ;
31 -> 32 ;
33 [label=<X<SUB>0</SUB> &le; 0.635<br/>gini = 0.044<br/>samples = 313<br/>value = [4, 306, 3]>, fillcolor="#3de684"] ;
32 -> 33 ;
34 [label=<X<SUB>8</SUB> &le; 0.248<br/>gini = 0.033<br/>samples = 299<br/>value = [4, 294, 1]>, fillcolor="#3ce583"] ;
33 -> 34 ;
35 [label=<X<SUB>6</SUB> &le; 0.001<br/>gini = 0.008<br/>samples = 236<br/>value = [0, 235, 1]>, fillcolor="#3ae582"] ;
34 -> 35 ;
36 [label=<X<SUB>6</SUB> &le; 0.001<br/>gini = 0.067<br/>samples = 29<br/>value = [0, 28, 1]>, fillcolor="#40e686"] ;
35 -> 36 ;
37 [label=<gini = 0.0<br/>samples = 28<br/>value = [0, 28, 0]>, fillcolor="#39e581"] ;
36 -> 37 ;
38 [label=<gini = 0.0<br/>samples = 1<br/>value = [0, 0, 1]>, fillcolor="#8139e5"] ;
36 -> 38 ;
39 [label=<gini = 0.0<br/>samples = 207<br/>value = [0, 207, 0]>, fillcolor="#39e581"] ;
35 -> 39 ;
40 [label=<X<SUB>5</SUB> &le; 0.101<br/>gini = 0.119<br/>samples = 63<br/>value = [4, 59, 0]>, fillcolor="#46e78a"] ;
34 -> 40 ;
41 [label=<X<SUB>8</SUB> &le; 0.252<br/>gini = 0.092<br/>samples = 62<br/>value = [3, 59, 0]>, fillcolor="#43e687"] ;
40 -> 41 ;
42 [label=<gini = 0.0<br/>samples = 1<br/>value = [1, 0, 0]>, fillcolor="#e58139"] ;
41 -> 42 ;
43 [label=<X<SUB>0</SUB> &le; 0.614<br/>gini = 0.063<br/>samples = 61<br/>value = [2, 59, 0]>, fillcolor="#40e685"] ;
41 -> 43 ;
44 [label=<X<SUB>5</SUB> &le; 0.027<br/>gini = 0.033<br/>samples = 59<br/>value = [1, 58, 0]>, fillcolor="#3ce583"] ;
43 -> 44 ;
45 [label=<gini = 0.375<br/>samples = 4<br/>value = [1, 3, 0]>, fillcolor="#7beeab"] ;
44 -> 45 ;
46 [label=<gini = 0.0<br/>samples = 55<br/>value = [0, 55, 0]>, fillcolor="#39e581"] ;
44 -> 46 ;
47 [label=<gini = 0.5<br/>samples = 2<br/>value = [1, 1, 0]>, fillcolor="#ffffff"] ;
43 -> 47 ;
48 [label=<gini = 0.0<br/>samples = 1<br/>value = [1, 0, 0]>, fillcolor="#e58139"] ;
40 -> 48 ;
49 [label=<gini = 0.245<br/>samples = 14<br/>value = [0, 12, 2]>, fillcolor="#5ae996"] ;
33 -> 49 ;
50 [label=<gini = 0.278<br/>samples = 12<br/>value = [0, 10, 2]>, fillcolor="#61ea9a"] ;
32 -> 50 ;
51 [label=<gini = 0.444<br/>samples = 3<br/>value = [0, 2, 1]>, fillcolor="#9cf2c0"] ;
31 -> 51 ;
52 [label=<gini = 0.444<br/>samples = 3<br/>value = [0, 2, 1]>, fillcolor="#9cf2c0"] ;
30 -> 52 ;
53 [label=<X<SUB>7</SUB> &le; 0.144<br/>gini = 0.219<br/>samples = 40<br/>value = [0, 35, 5]>, fillcolor="#55e993"] ;
29 -> 53 ;
54 [label=<gini = 0.0<br/>samples = 2<br/>value = [0, 0, 2]>, fillcolor="#8139e5"] ;
53 -> 54 ;
55 [label=<X<SUB>8</SUB> &le; 0.365<br/>gini = 0.145<br/>samples = 38<br/>value = [0, 35, 3]>, fillcolor="#4ae78c"] ;
53 -> 55 ;
56 [label=<X<SUB>5</SUB> &le; 0.044<br/>gini = 0.054<br/>samples = 36<br/>value = [0, 35, 1]>, fillcolor="#3fe685"] ;
55 -> 56 ;
57 [label=<gini = 0.0<br/>samples = 32<br/>value = [0, 32, 0]>, fillcolor="#39e581"] ;
56 -> 57 ;
58 [label=<gini = 0.375<br/>samples = 4<br/>value = [0, 3, 1]>, fillcolor="#7beeab"] ;
56 -> 58 ;
59 [label=<gini = 0.0<br/>samples = 2<br/>value = [0, 0, 2]>, fillcolor="#8139e5"] ;
55 -> 59 ;
60 [label=<gini = 0.5<br/>samples = 2<br/>value = [1, 1, 0]>, fillcolor="#ffffff"] ;
28 -> 60 ;
61 [label=<X<SUB>6</SUB> &le; 0.008<br/>gini = 0.037<br/>samples = 4206<br/>value = [43, 4128, 35]>, fillcolor="#3de583"] ;
5 -> 61 ;
62 [label=<X<SUB>0</SUB> &le; 0.653<br/>gini = 0.01<br/>samples = 2747<br/>value = [10, 2733, 4]>, fillcolor="#3ae582"] ;
61 -> 62 ;
63 [label=<X<SUB>1</SUB> &le; 0.681<br/>gini = 0.009<br/>samples = 2742<br/>value = [10, 2729, 3]>, fillcolor="#3ae582"] ;
62 -> 63 ;
64 [label=<X<SUB>5</SUB> &le; 0.13<br/>gini = 0.074<br/>samples = 130<br/>value = [5, 125, 0]>, fillcolor="#41e686"] ;
63 -> 64 ;
65 [label=<X<SUB>11</SUB> &le; 112090.0<br/>gini = 0.046<br/>samples = 128<br/>value = [3, 125, 0]>, fillcolor="#3ee684"] ;
64 -> 65 ;
66 [label=<gini = 0.0<br/>samples = 1<br/>value = [1, 0, 0]>, fillcolor="#e58139"] ;
65 -> 66 ;
67 [label=<X<SUB>1</SUB> &le; 0.68<br/>gini = 0.031<br/>samples = 127<br/>value = [2, 125, 0]>, fillcolor="#3ce583"] ;
65 -> 67 ;
68 [label=<X<SUB>10</SUB> &le; 93.16<br/>gini = 0.016<br/>samples = 125<br/>value = [1, 124, 0]>, fillcolor="#3be582"] ;
67 -> 68 ;
69 [label=<X<SUB>10</SUB> &le; 92.092<br/>gini = 0.095<br/>samples = 20<br/>value = [1, 19, 0]>, fillcolor="#43e688"] ;
68 -> 69 ;
70 [label=<gini = 0.0<br/>samples = 19<br/>value = [0, 19, 0]>, fillcolor="#39e581"] ;
69 -> 70 ;
71 [label=<gini = 0.0<br/>samples = 1<br/>value = [1, 0, 0]>, fillcolor="#e58139"] ;
69 -> 71 ;
72 [label=<gini = 0.0<br/>samples = 105<br/>value = [0, 105, 0]>, fillcolor="#39e581"] ;
68 -> 72 ;
73 [label=<gini = 0.5<br/>samples = 2<br/>value = [1, 1, 0]>, fillcolor="#ffffff"] ;
67 -> 73 ;
74 [label=<gini = 0.0<br/>samples = 2<br/>value = [2, 0, 0]>, fillcolor="#e58139"] ;
64 -> 74 ;
75 [label=<X<SUB>0</SUB> &le; 0.605<br/>gini = 0.006<br/>samples = 2612<br/>value = [5, 2604, 3]>, fillcolor="#3ae581"] ;
63 -> 75 ;
76 [label=<X<SUB>7</SUB> &le; 0.35<br/>gini = 0.002<br/>samples = 2446<br/>value = [1, 2443, 2]>, fillcolor="#39e581"] ;
75 -> 76 ;
77 [label=<X<SUB>5</SUB> &le; 0.129<br/>gini = 0.002<br/>samples = 2422<br/>value = [1, 2420, 1]>, fillcolor="#39e581"] ;
76 -> 77 ;
78 [label=<X<SUB>6</SUB> &le; 0.006<br/>gini = 0.001<br/>samples = 2313<br/>value = [1, 2312, 0]>, fillcolor="#39e581"] ;
77 -> 78 ;
79 [label=<gini = 0.0<br/>samples = 2178<br/>value = [0, 2178, 0]>, fillcolor="#39e581"] ;
78 -> 79 ;
80 [label=<X<SUB>6</SUB> &le; 0.006<br/>gini = 0.015<br/>samples = 135<br/>value = [1, 134, 0]>, fillcolor="#3ae582"] ;
78 -> 80 ;
81 [label=<gini = 0.0<br/>samples = 1<br/>value = [1, 0, 0]>, fillcolor="#e58139"] ;
80 -> 81 ;
82 [label=<gini = 0.0<br/>samples = 134<br/>value = [0, 134, 0]>, fillcolor="#39e581"] ;
80 -> 82 ;
83 [label=<X<SUB>9</SUB> &le; 0.714<br/>gini = 0.018<br/>samples = 109<br/>value = [0, 108, 1]>, fillcolor="#3be582"] ;
77 -> 83 ;
84 [label=<gini = 0.0<br/>samples = 107<br/>value = [0, 107, 0]>, fillcolor="#39e581"] ;
83 -> 84 ;
85 [label=<gini = 0.5<br/>samples = 2<br/>value = [0, 1, 1]>, fillcolor="#ffffff"] ;
83 -> 85 ;
86 [label=<X<SUB>7</SUB> &le; 0.351<br/>gini = 0.08<br/>samples = 24<br/>value = [0, 23, 1]>, fillcolor="#42e686"] ;
76 -> 86 ;
87 [label=<gini = 0.0<br/>samples = 1<br/>value = [0, 0, 1]>, fillcolor="#8139e5"] ;
86 -> 87 ;
88 [label=<gini = 0.0<br/>samples = 23<br/>value = [0, 23, 0]>, fillcolor="#39e581"] ;
86 -> 88 ;
89 [label=<X<SUB>9</SUB> &le; 0.163<br/>gini = 0.059<br/>samples = 166<br/>value = [4, 161, 1]>, fillcolor="#3fe685"] ;
75 -> 89 ;
90 [label=<gini = 0.0<br/>samples = 1<br/>value = [1, 0, 0]>, fillcolor="#e58139"] ;
89 -> 90 ;
91 [label=<X<SUB>11</SUB> &le; 113794.0<br/>gini = 0.048<br/>samples = 165<br/>value = [3, 161, 1]>, fillcolor="#3ee684"] ;
89 -> 91 ;
92 [label=<gini = 0.0<br/>samples = 1<br/>value = [1, 0, 0]>, fillcolor="#e58139"] ;
91 -> 92 ;
93 [label=<X<SUB>10</SUB> &le; 77.745<br/>gini = 0.036<br/>samples = 164<br/>value = [2, 161, 1]>, fillcolor="#3de583"] ;
91 -> 93 ;
94 [label=<gini = 0.5<br/>samples = 2<br/>value = [1, 1, 0]>, fillcolor="#ffffff"] ;
93 -> 94 ;
95 [label=<X<SUB>5</SUB> &le; 0.152<br/>gini = 0.024<br/>samples = 162<br/>value = [1, 160, 1]>, fillcolor="#3be583"] ;
93 -> 95 ;
96 [label=<X<SUB>1</SUB> &le; 0.96<br/>gini = 0.013<br/>samples = 157<br/>value = [0, 156, 1]>, fillcolor="#3ae582"] ;
95 -> 96 ;
97 [label=<gini = 0.0<br/>samples = 151<br/>value = [0, 151, 0]>, fillcolor="#39e581"] ;
96 -> 97 ;
98 [label=<gini = 0.278<br/>samples = 6<br/>value = [0, 5, 1]>, fillcolor="#61ea9a"] ;
96 -> 98 ;
99 [label=<gini = 0.32<br/>samples = 5<br/>value = [1, 4, 0]>, fillcolor="#6aeca0"] ;
95 -> 99 ;
100 [label=<gini = 0.32<br/>samples = 5<br/>value = [0, 4, 1]>, fillcolor="#6aeca0"] ;
62 -> 100 ;
101 [label=<X<SUB>7</SUB> &le; 0.302<br/>gini = 0.085<br/>samples = 1459<br/>value = [33, 1395, 31]>, fillcolor="#42e687"] ;
61 -> 101 ;
102 [label=<X<SUB>6</SUB> &le; 0.008<br/>gini = 0.075<br/>samples = 1429<br/>value = [32, 1374, 23]>, fillcolor="#41e686"] ;
101 -> 102 ;
103 [label=<gini = 0.0<br/>samples = 1<br/>value = [1, 0, 0]>, fillcolor="#e58139"] ;
102 -> 103 ;
104 [label=<X<SUB>10</SUB> &le; 77.494<br/>gini = 0.073<br/>samples = 1428<br/>value = [31, 1374, 23]>, fillcolor="#41e686"] ;
102 -> 104 ;
105 [label=<X<SUB>10</SUB> &le; 76.909<br/>gini = 0.381<br/>samples = 25<br/>value = [5, 19, 1]>, fillcolor="#74eda7"] ;
104 -> 105 ;
106 [label=<X<SUB>5</SUB> &le; 0.028<br/>gini = 0.177<br/>samples = 21<br/>value = [1, 19, 1]>, fillcolor="#4de88e"] ;
105 -> 106 ;
107 [label=<gini = 0.0<br/>samples = 1<br/>value = [0, 0, 1]>, fillcolor="#8139e5"] ;
106 -> 107 ;
108 [label=<X<SUB>2</SUB> &le; 10.5<br/>gini = 0.095<br/>samples = 20<br/>value = [1, 19, 0]>, fillcolor="#43e688"] ;
106 -> 108 ;
109 [label=<gini = 0.0<br/>samples = 18<br/>value = [0, 18, 0]>, fillcolor="#39e581"] ;
108 -> 109 ;
110 [label=<gini = 0.5<br/>samples = 2<br/>value = [1, 1, 0]>, fillcolor="#ffffff"] ;
108 -> 110 ;
111 [label=<gini = 0.0<br/>samples = 4<br/>value = [4, 0, 0]>, fillcolor="#e58139"] ;
105 -> 111 ;
112 [label=<X<SUB>9</SUB> &le; 0.375<br/>gini = 0.067<br/>samples = 1403<br/>value = [26, 1355, 22]>, fillcolor="#40e685"] ;
104 -> 112 ;
113 [label=<X<SUB>10</SUB> &le; 197.615<br/>gini = 0.119<br/>samples = 397<br/>value = [21, 372, 4]>, fillcolor="#46e789"] ;
112 -> 113 ;
114 [label=<X<SUB>11</SUB> &le; 194386.0<br/>gini = 0.111<br/>samples = 395<br/>value = [19, 372, 4]>, fillcolor="#45e789"] ;
113 -> 114 ;
115 [label=<X<SUB>12</SUB> &le; 3.5<br/>gini = 0.276<br/>samples = 74<br/>value = [11, 62, 1]>, fillcolor="#5fea99"] ;
114 -> 115 ;
116 [label=<gini = 0.5<br/>samples = 2<br/>value = [1, 0, 1]>, fillcolor="#ffffff"] ;
115 -> 116 ;
117 [label=<X<SUB>0</SUB> &le; 0.538<br/>gini = 0.239<br/>samples = 72<br/>value = [10, 62, 0]>, fillcolor="#59e995"] ;
115 -> 117 ;
118 [label=<X<SUB>8</SUB> &le; 0.09<br/>gini = 0.133<br/>samples = 56<br/>value = [4, 52, 0]>, fillcolor="#48e78b"] ;
117 -> 118 ;
119 [label=<gini = 0.463<br/>samples = 11<br/>value = [4, 7, 0]>, fillcolor="#aaf4c9"] ;
118 -> 119 ;
120 [label=<gini = 0.0<br/>samples = 45<br/>value = [0, 45, 0]>, fillcolor="#39e581"] ;
118 -> 120 ;
121 [label=<gini = 0.469<br/>samples = 16<br/>value = [6, 10, 0]>, fillcolor="#b0f5cd"] ;
117 -> 121 ;
122 [label=<X<SUB>9</SUB> &le; 0.374<br/>gini = 0.067<br/>samples = 321<br/>value = [8, 310, 3]>, fillcolor="#40e685"] ;
114 -> 122 ;
123 [label=<X<SUB>8</SUB> &le; 0.046<br/>gini = 0.056<br/>samples = 317<br/>value = [6, 308, 3]>, fillcolor="#3fe685"] ;
122 -> 123 ;
124 [label=<gini = 0.5<br/>samples = 2<br/>value = [1, 1, 0]>, fillcolor="#ffffff"] ;
123 -> 124 ;
125 [label=<X<SUB>0</SUB> &le; 0.574<br/>gini = 0.05<br/>samples = 315<br/>value = [5, 307, 3]>, fillcolor="#3ee684"] ;
123 -> 125 ;
126 [label=<X<SUB>10</SUB> &le; 79.54<br/>gini = 0.021<br/>samples = 278<br/>value = [2, 275, 1]>, fillcolor="#3be582"] ;
125 -> 126 ;
127 [label=<gini = 0.444<br/>samples = 3<br/>value = [0, 2, 1]>, fillcolor="#9cf2c0"] ;
126 -> 127 ;
128 [label=<X<SUB>10</SUB> &le; 80.129<br/>gini = 0.014<br/>samples = 275<br/>value = [2, 273, 0]>, fillcolor="#3ae582"] ;
126 -> 128 ;
129 [label=<gini = 0.198<br/>samples = 9<br/>value = [1, 8, 0]>, fillcolor="#52e891"] ;
128 -> 129 ;
130 [label=<X<SUB>5</SUB> &le; 0.114<br/>gini = 0.007<br/>samples = 266<br/>value = [1, 265, 0]>, fillcolor="#3ae581"] ;
128 -> 130 ;
131 [label=<gini = 0.0<br/>samples = 253<br/>value = [0, 253, 0]>, fillcolor="#39e581"] ;
130 -> 131 ;
132 [label=<gini = 0.142<br/>samples = 13<br/>value = [1, 12, 0]>, fillcolor="#49e78c"] ;
130 -> 132 ;
133 [label=<X<SUB>0</SUB> &le; 0.587<br/>gini = 0.243<br/>samples = 37<br/>value = [3, 32, 2]>, fillcolor="#56e994"] ;
125 -> 133 ;
134 [label=<gini = 0.653<br/>samples = 7<br/>value = [3, 2, 2]>, fillcolor="#fae6d7"] ;
133 -> 134 ;
135 [label=<gini = 0.0<br/>samples = 30<br/>value = [0, 30, 0]>, fillcolor="#39e581"] ;
133 -> 135 ;
136 [label=<gini = 0.5<br/>samples = 4<br/>value = [2, 2, 0]>, fillcolor="#ffffff"] ;
122 -> 136 ;
137 [label=<gini = 0.0<br/>samples = 2<br/>value = [2, 0, 0]>, fillcolor="#e58139"] ;
113 -> 137 ;
138 [label=<X<SUB>7</SUB> &le; 0.139<br/>gini = 0.045<br/>samples = 1006<br/>value = [5, 983, 18]>, fillcolor="#3ee684"] ;
112 -> 138 ;
139 [label=<X<SUB>11</SUB> &le; 368833.5<br/>gini = 0.037<br/>samples = 969<br/>value = [5, 951, 13]>, fillcolor="#3de583"] ;
138 -> 139 ;
140 [label=<X<SUB>0</SUB> &le; 0.522<br/>gini = 0.031<br/>samples = 947<br/>value = [5, 932, 10]>, fillcolor="#3ce583"] ;
139 -> 140 ;
141 [label=<gini = 0.0<br/>samples = 394<br/>value = [0, 394, 0]>, fillcolor="#39e581"] ;
140 -> 141 ;
142 [label=<X<SUB>0</SUB> &le; 0.53<br/>gini = 0.053<br/>samples = 553<br/>value = [5, 538, 10]>, fillcolor="#3ee684"] ;
140 -> 142 ;
143 [label=<X<SUB>9</SUB> &le; 0.391<br/>gini = 0.22<br/>samples = 33<br/>value = [2, 29, 2]>, fillcolor="#53e891"] ;
142 -> 143 ;
144 [label=<gini = 0.0<br/>samples = 1<br/>value = [0, 0, 1]>, fillcolor="#8139e5"] ;
143 -> 144 ;
145 [label=<X<SUB>6</SUB> &le; 0.062<br/>gini = 0.174<br/>samples = 32<br/>value = [2, 29, 1]>, fillcolor="#4de88e"] ;
143 -> 145 ;
146 [label=<X<SUB>11</SUB> &le; 166760.5<br/>gini = 0.121<br/>samples = 31<br/>value = [2, 29, 0]>, fillcolor="#47e78a"] ;
145 -> 146 ;
147 [label=<gini = 0.48<br/>samples = 5<br/>value = [2, 3, 0]>, fillcolor="#bdf6d5"] ;
146 -> 147 ;
148 [label=<gini = 0.0<br/>samples = 26<br/>value = [0, 26, 0]>, fillcolor="#39e581"] ;
146 -> 148 ;
149 [label=<gini = 0.0<br/>samples = 1<br/>value = [0, 0, 1]>, fillcolor="#8139e5"] ;
145 -> 149 ;
150 [label=<X<SUB>5</SUB> &le; 0.066<br/>gini = 0.042<br/>samples = 520<br/>value = [3, 509, 8]>, fillcolor="#3de684"] ;
142 -> 150 ;
151 [label=<X<SUB>11</SUB> &le; 254839.0<br/>gini = 0.024<br/>samples = 404<br/>value = [1, 399, 4]>, fillcolor="#3be583"] ;
150 -> 151 ;
152 [label=<X<SUB>6</SUB> &le; 0.089<br/>gini = 0.012<br/>samples = 330<br/>value = [1, 328, 1]>, fillcolor="#3ae582"] ;
151 -> 152 ;
153 [label=<X<SUB>7</SUB> &le; 0.086<br/>gini = 0.006<br/>samples = 319<br/>value = [0, 318, 1]>, fillcolor="#3ae581"] ;
152 -> 153 ;
154 [label=<gini = 0.0<br/>samples = 303<br/>value = [0, 303, 0]>, fillcolor="#39e581"] ;
153 -> 154 ;
155 [label=<gini = 0.117<br/>samples = 16<br/>value = [0, 15, 1]>, fillcolor="#46e789"] ;
153 -> 155 ;
156 [label=<gini = 0.165<br/>samples = 11<br/>value = [1, 10, 0]>, fillcolor="#4de88e"] ;
152 -> 156 ;
157 [label=<X<SUB>11</SUB> &le; 255653.0<br/>gini = 0.078<br/>samples = 74<br/>value = [0, 71, 3]>, fillcolor="#41e686"] ;
151 -> 157 ;
158 [label=<gini = 0.0<br/>samples = 2<br/>value = [0, 0, 2]>, fillcolor="#8139e5"] ;
157 -> 158 ;
159 [label=<X<SUB>11</SUB> &le; 261400.0<br/>gini = 0.027<br/>samples = 72<br/>value = [0, 71, 1]>, fillcolor="#3ce583"] ;
157 -> 159 ;
160 [label=<gini = 0.278<br/>samples = 6<br/>value = [0, 5, 1]>, fillcolor="#61ea9a"] ;
159 -> 160 ;
161 [label=<gini = 0.0<br/>samples = 66<br/>value = [0, 66, 0]>, fillcolor="#39e581"] ;
159 -> 161 ;
162 [label=<X<SUB>5</SUB> &le; 0.066<br/>gini = 0.099<br/>samples = 116<br/>value = [2, 110, 4]>, fillcolor="#44e688"] ;
150 -> 162 ;
163 [label=<gini = 0.5<br/>samples = 2<br/>value = [1, 1, 0]>, fillcolor="#ffffff"] ;
162 -> 163 ;
164 [label=<X<SUB>6</SUB> &le; 0.083<br/>gini = 0.084<br/>samples = 114<br/>value = [1, 109, 4]>, fillcolor="#42e687"] ;
162 -> 164 ;
165 [label=<X<SUB>0</SUB> &le; 0.639<br/>gini = 0.069<br/>samples = 112<br/>value = [1, 108, 3]>, fillcolor="#40e686"] ;
164 -> 165 ;
166 [label=<X<SUB>10</SUB> &le; 99.513<br/>gini = 0.054<br/>samples = 108<br/>value = [0, 105, 3]>, fillcolor="#3fe685"] ;
165 -> 166 ;
167 [label=<gini = 0.26<br/>samples = 13<br/>value = [0, 11, 2]>, fillcolor="#5dea98"] ;
166 -> 167 ;
168 [label=<X<SUB>10</SUB> &le; 174.952<br/>gini = 0.021<br/>samples = 95<br/>value = [0, 94, 1]>, fillcolor="#3be582"] ;
166 -> 168 ;
169 [label=<gini = 0.0<br/>samples = 84<br/>value = [0, 84, 0]>, fillcolor="#39e581"] ;
168 -> 169 ;
170 [label=<gini = 0.165<br/>samples = 11<br/>value = [0, 10, 1]>, fillcolor="#4de88e"] ;
168 -> 170 ;
171 [label=<gini = 0.375<br/>samples = 4<br/>value = [1, 3, 0]>, fillcolor="#7beeab"] ;
165 -> 171 ;
172 [label=<gini = 0.5<br/>samples = 2<br/>value = [0, 1, 1]>, fillcolor="#ffffff"] ;
164 -> 172 ;
173 [label=<X<SUB>11</SUB> &le; 370992.0<br/>gini = 0.236<br/>samples = 22<br/>value = [0, 19, 3]>, fillcolor="#58e995"] ;
139 -> 173 ;
174 [label=<gini = 0.0<br/>samples = 2<br/>value = [0, 0, 2]>, fillcolor="#8139e5"] ;
173 -> 174 ;
175 [label=<X<SUB>9</SUB> &le; 0.893<br/>gini = 0.095<br/>samples = 20<br/>value = [0, 19, 1]>, fillcolor="#43e688"] ;
173 -> 175 ;
176 [label=<gini = 0.0<br/>samples = 19<br/>value = [0, 19, 0]>, fillcolor="#39e581"] ;
175 -> 176 ;
177 [label=<gini = 0.0<br/>samples = 1<br/>value = [0, 0, 1]>, fillcolor="#8139e5"] ;
175 -> 177 ;
178 [label=<X<SUB>0</SUB> &le; 0.607<br/>gini = 0.234<br/>samples = 37<br/>value = [0, 32, 5]>, fillcolor="#58e995"] ;
138 -> 178 ;
179 [label=<X<SUB>5</SUB> &le; 0.064<br/>gini = 0.114<br/>samples = 33<br/>value = [0, 31, 2]>, fillcolor="#46e789"] ;
178 -> 179 ;
180 [label=<gini = 0.0<br/>samples = 27<br/>value = [0, 27, 0]>, fillcolor="#39e581"] ;
179 -> 180 ;
181 [label=<gini = 0.444<br/>samples = 6<br/>value = [0, 4, 2]>, fillcolor="#9cf2c0"] ;
179 -> 181 ;
182 [label=<gini = 0.375<br/>samples = 4<br/>value = [0, 1, 3]>, fillcolor="#ab7bee"] ;
178 -> 182 ;
183 [label=<X<SUB>5</SUB> &le; 0.06<br/>gini = 0.438<br/>samples = 30<br/>value = [1, 21, 8]>, fillcolor="#8af0b5"] ;
101 -> 183 ;
184 [label=<X<SUB>6</SUB> &le; 0.063<br/>gini = 0.299<br/>samples = 23<br/>value = [1, 19, 3]>, fillcolor="#61ea9a"] ;
183 -> 184 ;
185 [label=<gini = 0.1<br/>samples = 19<br/>value = [1, 18, 0]>, fillcolor="#44e688"] ;
184 -> 185 ;
186 [label=<gini = 0.375<br/>samples = 4<br/>value = [0, 1, 3]>, fillcolor="#ab7bee"] ;
184 -> 186 ;
187 [label=<gini = 0.408<br/>samples = 7<br/>value = [0, 2, 5]>, fillcolor="#b388ef"] ;
183 -> 187 ;
188 [label=<X<SUB>11</SUB> &le; 355645.0<br/>gini = 0.343<br/>samples = 1450<br/>value = [82, 1153, 215]>, fillcolor="#69eb9f"] ;
4 -> 188 ;
189 [label=<X<SUB>4</SUB> &le; 0.5<br/>gini = 0.297<br/>samples = 1282<br/>value = [79, 1063, 140]>, fillcolor="#5fea99"] ;
188 -> 189 ;
190 [label=<X<SUB>1</SUB> &le; 0.775<br/>gini = 0.46<br/>samples = 377<br/>value = [39, 264, 74]>, fillcolor="#83efb0"] ;
189 -> 190 ;
191 [label=<X<SUB>5</SUB> &le; 0.068<br/>gini = 0.54<br/>samples = 279<br/>value = [38, 172, 69]>, fillcolor="#9ef2c1"] ;
190 -> 191 ;
192 [label=<X<SUB>7</SUB> &le; 0.001<br/>gini = 0.463<br/>samples = 231<br/>value = [16, 159, 56]>, fillcolor="#8af0b5"] ;
191 -> 192 ;
193 [label=<X<SUB>1</SUB> &le; 0.443<br/>gini = 0.387<br/>samples = 149<br/>value = [16, 114, 19]>, fillcolor="#6eeca3"] ;
192 -> 193 ;
194 [label=<X<SUB>6</SUB> &le; 0.289<br/>gini = 0.643<br/>samples = 23<br/>value = [5, 10, 8]>, fillcolor="#e5fcee"] ;
193 -> 194 ;
195 [label=<gini = 0.5<br/>samples = 12<br/>value = [2, 8, 2]>, fillcolor="#88efb3"] ;
194 -> 195 ;
196 [label=<gini = 0.595<br/>samples = 11<br/>value = [3, 2, 6]>, fillcolor="#d0b5f5"] ;
194 -> 196 ;
197 [label=<X<SUB>11</SUB> &le; 152386.5<br/>gini = 0.303<br/>samples = 126<br/>value = [11, 104, 11]>, fillcolor="#5fea99"] ;
193 -> 197 ;
198 [label=<gini = 0.651<br/>samples = 13<br/>value = [5, 5, 3]>, fillcolor="#ffffff"] ;
197 -> 198 ;
199 [label=<X<SUB>10</SUB> &le; 75.486<br/>gini = 0.225<br/>samples = 113<br/>value = [6, 99, 8]>, fillcolor="#53e892"] ;
197 -> 199 ;
200 [label=<gini = 0.0<br/>samples = 1<br/>value = [1, 0, 0]>, fillcolor="#e58139"] ;
199 -> 200 ;
201 [label=<X<SUB>5</SUB> &le; 0.037<br/>gini = 0.212<br/>samples = 112<br/>value = [5, 99, 8]>, fillcolor="#52e891"] ;
199 -> 201 ;
202 [label=<X<SUB>6</SUB> &le; 0.491<br/>gini = 0.058<br/>samples = 67<br/>value = [0, 65, 2]>, fillcolor="#3fe685"] ;
201 -> 202 ;
203 [label=<X<SUB>6</SUB> &le; 0.1<br/>gini = 0.03<br/>samples = 66<br/>value = [0, 65, 1]>, fillcolor="#3ce583"] ;
202 -> 203 ;
204 [label=<gini = 0.375<br/>samples = 4<br/>value = [0, 3, 1]>, fillcolor="#7beeab"] ;
203 -> 204 ;
205 [label=<gini = 0.0<br/>samples = 62<br/>value = [0, 62, 0]>, fillcolor="#39e581"] ;
203 -> 205 ;
206 [label=<gini = 0.0<br/>samples = 1<br/>value = [0, 0, 1]>, fillcolor="#8139e5"] ;
202 -> 206 ;
207 [label=<X<SUB>5</SUB> &le; 0.037<br/>gini = 0.399<br/>samples = 45<br/>value = [5, 34, 6]>, fillcolor="#71eca5"] ;
201 -> 207 ;
208 [label=<gini = 0.444<br/>samples = 3<br/>value = [2, 0, 1]>, fillcolor="#f2c09c"] ;
207 -> 208 ;
209 [label=<X<SUB>10</SUB> &le; 183.085<br/>gini = 0.325<br/>samples = 42<br/>value = [3, 34, 5]>, fillcolor="#64eb9c"] ;
207 -> 209 ;
210 [label=<X<SUB>10</SUB> &le; 77.691<br/>gini = 0.266<br/>samples = 40<br/>value = [3, 34, 3]>, fillcolor="#59e995"] ;
209 -> 210 ;
211 [label=<gini = 0.0<br/>samples = 1<br/>value = [0, 0, 1]>, fillcolor="#8139e5"] ;
210 -> 211 ;
212 [label=<X<SUB>0</SUB> &le; 0.632<br/>gini = 0.231<br/>samples = 39<br/>value = [3, 34, 2]>, fillcolor="#54e992"] ;
210 -> 212 ;
213 [label=<X<SUB>8</SUB> &le; 0.094<br/>gini = 0.16<br/>samples = 35<br/>value = [1, 32, 2]>, fillcolor="#4be78c"] ;
212 -> 213 ;
214 [label=<gini = 0.444<br/>samples = 6<br/>value = [0, 4, 2]>, fillcolor="#9cf2c0"] ;
213 -> 214 ;
215 [label=<X<SUB>8</SUB> &le; 0.333<br/>gini = 0.067<br/>samples = 29<br/>value = [1, 28, 0]>, fillcolor="#40e686"] ;
213 -> 215 ;
216 [label=<gini = 0.0<br/>samples = 25<br/>value = [0, 25, 0]>, fillcolor="#39e581"] ;
215 -> 216 ;
217 [label=<gini = 0.375<br/>samples = 4<br/>value = [1, 3, 0]>, fillcolor="#7beeab"] ;
215 -> 217 ;
218 [label=<gini = 0.5<br/>samples = 4<br/>value = [2, 2, 0]>, fillcolor="#ffffff"] ;
212 -> 218 ;
219 [label=<gini = 0.0<br/>samples = 2<br/>value = [0, 0, 2]>, fillcolor="#8139e5"] ;
209 -> 219 ;
220 [label=<X<SUB>3</SUB> &le; -11.195<br/>gini = 0.495<br/>samples = 82<br/>value = [0, 45, 37]>, fillcolor="#dcfae9"] ;
192 -> 220 ;
221 [label=<X<SUB>0</SUB> &le; 0.635<br/>gini = 0.351<br/>samples = 22<br/>value = [0, 5, 17]>, fillcolor="#a673ed"] ;
220 -> 221 ;
222 [label=<gini = 0.188<br/>samples = 19<br/>value = [0, 2, 17]>, fillcolor="#9050e8"] ;
221 -> 222 ;
223 [label=<gini = 0.0<br/>samples = 3<br/>value = [0, 3, 0]>, fillcolor="#39e581"] ;
221 -> 223 ;
224 [label=<X<SUB>2</SUB> &le; 6.5<br/>gini = 0.444<br/>samples = 60<br/>value = [0, 40, 20]>, fillcolor="#9cf2c0"] ;
220 -> 224 ;
225 [label=<X<SUB>7</SUB> &le; 0.001<br/>gini = 0.271<br/>samples = 31<br/>value = [0, 26, 5]>, fillcolor="#5fea99"] ;
224 -> 225 ;
226 [label=<gini = 0.0<br/>samples = 2<br/>value = [0, 0, 2]>, fillcolor="#8139e5"] ;
225 -> 226 ;
227 [label=<X<SUB>5</SUB> &le; 0.025<br/>gini = 0.185<br/>samples = 29<br/>value = [0, 26, 3]>, fillcolor="#50e890"] ;
225 -> 227 ;
228 [label=<gini = 0.0<br/>samples = 1<br/>value = [0, 0, 1]>, fillcolor="#8139e5"] ;
227 -> 228 ;
229 [label=<X<SUB>11</SUB> &le; 153895.5<br/>gini = 0.133<br/>samples = 28<br/>value = [0, 26, 2]>, fillcolor="#48e78b"] ;
227 -> 229 ;
230 [label=<gini = 0.0<br/>samples = 1<br/>value = [0, 0, 1]>, fillcolor="#8139e5"] ;
229 -> 230 ;
231 [label=<X<SUB>9</SUB> &le; 0.153<br/>gini = 0.071<br/>samples = 27<br/>value = [0, 26, 1]>, fillcolor="#41e686"] ;
229 -> 231 ;
232 [label=<gini = 0.5<br/>samples = 2<br/>value = [0, 1, 1]>, fillcolor="#ffffff"] ;
231 -> 232 ;
233 [label=<gini = 0.0<br/>samples = 25<br/>value = [0, 25, 0]>, fillcolor="#39e581"] ;
231 -> 233 ;
234 [label=<X<SUB>9</SUB> &le; 0.218<br/>gini = 0.499<br/>samples = 29<br/>value = [0, 14, 15]>, fillcolor="#f7f2fd"] ;
224 -> 234 ;
235 [label=<gini = 0.0<br/>samples = 4<br/>value = [0, 4, 0]>, fillcolor="#39e581"] ;
234 -> 235 ;
236 [label=<X<SUB>3</SUB> &le; -5.224<br/>gini = 0.48<br/>samples = 25<br/>value = [0, 10, 15]>, fillcolor="#d5bdf6"] ;
234 -> 236 ;
237 [label=<X<SUB>11</SUB> &le; 203550.0<br/>gini = 0.408<br/>samples = 21<br/>value = [0, 6, 15]>, fillcolor="#b388ef"] ;
236 -> 237 ;
238 [label=<gini = 0.0<br/>samples = 2<br/>value = [0, 2, 0]>, fillcolor="#39e581"] ;
237 -> 238 ;
239 [label=<gini = 0.332<br/>samples = 19<br/>value = [0, 4, 15]>, fillcolor="#a36eec"] ;
237 -> 239 ;
240 [label=<gini = 0.0<br/>samples = 4<br/>value = [0, 4, 0]>, fillcolor="#39e581"] ;
236 -> 240 ;
241 [label=<X<SUB>7</SUB> &le; 0.0<br/>gini = 0.643<br/>samples = 48<br/>value = [22, 13, 13]>, fillcolor="#f8dfcc"] ;
191 -> 241 ;
242 [label=<X<SUB>1</SUB> &le; 0.425<br/>gini = 0.265<br/>samples = 20<br/>value = [17, 1, 2]>, fillcolor="#e9965a"] ;
241 -> 242 ;
243 [label=<gini = 0.0<br/>samples = 1<br/>value = [0, 0, 1]>, fillcolor="#8139e5"] ;
242 -> 243 ;
244 [label=<gini = 0.194<br/>samples = 19<br/>value = [17, 1, 1]>, fillcolor="#e88f4f"] ;
242 -> 244 ;
245 [label=<X<SUB>1</SUB> &le; 0.727<br/>gini = 0.63<br/>samples = 28<br/>value = [5, 12, 11]>, fillcolor="#f3fdf8"] ;
241 -> 245 ;
246 [label=<X<SUB>7</SUB> &le; 0.0<br/>gini = 0.624<br/>samples = 22<br/>value = [5, 6, 11]>, fillcolor="#d8c1f7"] ;
245 -> 246 ;
247 [label=<gini = 0.449<br/>samples = 7<br/>value = [1, 5, 1]>, fillcolor="#7beeab"] ;
246 -> 247 ;
248 [label=<gini = 0.48<br/>samples = 15<br/>value = [4, 1, 10]>, fillcolor="#ba93f1"] ;
246 -> 248 ;
249 [label=<gini = 0.0<br/>samples = 6<br/>value = [0, 6, 0]>, fillcolor="#39e581"] ;
245 -> 249 ;
250 [label=<X<SUB>5</SUB> &le; 0.152<br/>gini = 0.116<br/>samples = 98<br/>value = [1, 92, 5]>, fillcolor="#46e789"] ;
190 -> 250 ;
251 [label=<X<SUB>8</SUB> &le; 0.043<br/>gini = 0.08<br/>samples = 96<br/>value = [0, 92, 4]>, fillcolor="#42e686"] ;
250 -> 251 ;
252 [label=<gini = 0.0<br/>samples = 1<br/>value = [0, 0, 1]>, fillcolor="#8139e5"] ;
251 -> 252 ;
253 [label=<X<SUB>0</SUB> &le; 0.65<br/>gini = 0.061<br/>samples = 95<br/>value = [0, 92, 3]>, fillcolor="#3fe685"] ;
251 -> 253 ;
254 [label=<X<SUB>7</SUB> &le; 0.073<br/>gini = 0.042<br/>samples = 94<br/>value = [0, 92, 2]>, fillcolor="#3de684"] ;
253 -> 254 ;
255 [label=<gini = 0.0<br/>samples = 82<br/>value = [0, 82, 0]>, fillcolor="#39e581"] ;
254 -> 255 ;
256 [label=<gini = 0.278<br/>samples = 12<br/>value = [0, 10, 2]>, fillcolor="#61ea9a"] ;
254 -> 256 ;
257 [label=<gini = 0.0<br/>samples = 1<br/>value = [0, 0, 1]>, fillcolor="#8139e5"] ;
253 -> 257 ;
258 [label=<gini = 0.5<br/>samples = 2<br/>value = [1, 0, 1]>, fillcolor="#ffffff"] ;
250 -> 258 ;
259 [label=<X<SUB>7</SUB> &le; 0.086<br/>gini = 0.213<br/>samples = 905<br/>value = [40, 799, 66]>, fillcolor="#52e891"] ;
189 -> 259 ;
260 [label=<X<SUB>5</SUB> &le; 0.068<br/>gini = 0.187<br/>samples = 830<br/>value = [39, 746, 45]>, fillcolor="#4ee88e"] ;
259 -> 260 ;
261 [label=<X<SUB>3</SUB> &le; -17.182<br/>gini = 0.147<br/>samples = 716<br/>value = [20, 660, 36]>, fillcolor="#49e78b"] ;
260 -> 261 ;
262 [label=<gini = 0.0<br/>samples = 3<br/>value = [0, 0, 3]>, fillcolor="#8139e5"] ;
261 -> 262 ;
263 [label=<X<SUB>11</SUB> &le; 169820.0<br/>gini = 0.14<br/>samples = 713<br/>value = [20, 660, 33]>, fillcolor="#48e78b"] ;
261 -> 263 ;
264 [label=<X<SUB>9</SUB> &le; 0.597<br/>gini = 0.346<br/>samples = 107<br/>value = [14, 85, 8]>, fillcolor="#68eb9f"] ;
263 -> 264 ;
265 [label=<X<SUB>2</SUB> &le; 1.5<br/>gini = 0.529<br/>samples = 42<br/>value = [14, 25, 3]>, fillcolor="#b1f5ce"] ;
264 -> 265 ;
266 [label=<gini = 0.245<br/>samples = 7<br/>value = [6, 0, 1]>, fillcolor="#e9965a"] ;
265 -> 266 ;
267 [label=<X<SUB>11</SUB> &le; 149035.0<br/>gini = 0.434<br/>samples = 35<br/>value = [8, 25, 2]>, fillcolor="#82efb0"] ;
265 -> 267 ;
268 [label=<gini = 0.204<br/>samples = 18<br/>value = [1, 16, 1]>, fillcolor="#50e890"] ;
267 -> 268 ;
269 [label=<gini = 0.547<br/>samples = 17<br/>value = [7, 9, 1]>, fillcolor="#d7fae6"] ;
267 -> 269 ;
270 [label=<X<SUB>11</SUB> &le; 116313.5<br/>gini = 0.142<br/>samples = 65<br/>value = [0, 60, 5]>, fillcolor="#49e78c"] ;
264 -> 270 ;
271 [label=<gini = 0.444<br/>samples = 3<br/>value = [0, 1, 2]>, fillcolor="#c09cf2"] ;
270 -> 271 ;
272 [label=<X<SUB>11</SUB> &le; 169513.5<br/>gini = 0.092<br/>samples = 62<br/>value = [0, 59, 3]>, fillcolor="#43e687"] ;
270 -> 272 ;
273 [label=<X<SUB>5</SUB> &le; 0.066<br/>gini = 0.063<br/>samples = 61<br/>value = [0, 59, 2]>, fillcolor="#40e685"] ;
272 -> 273 ;
274 [label=<X<SUB>11</SUB> &le; 161580.0<br/>gini = 0.034<br/>samples = 58<br/>value = [0, 57, 1]>, fillcolor="#3ce583"] ;
273 -> 274 ;
275 [label=<gini = 0.0<br/>samples = 52<br/>value = [0, 52, 0]>, fillcolor="#39e581"] ;
274 -> 275 ;
276 [label=<gini = 0.278<br/>samples = 6<br/>value = [0, 5, 1]>, fillcolor="#61ea9a"] ;
274 -> 276 ;
277 [label=<gini = 0.444<br/>samples = 3<br/>value = [0, 2, 1]>, fillcolor="#9cf2c0"] ;
273 -> 277 ;
278 [label=<gini = 0.0<br/>samples = 1<br/>value = [0, 0, 1]>, fillcolor="#8139e5"] ;
272 -> 278 ;
279 [label=<X<SUB>10</SUB> &le; 71.141<br/>gini = 0.098<br/>samples = 606<br/>value = [6, 575, 25]>, fillcolor="#44e688"] ;
263 -> 279 ;
280 [label=<gini = 0.48<br/>samples = 5<br/>value = [0, 3, 2]>, fillcolor="#bdf6d5"] ;
279 -> 280 ;
281 [label=<X<SUB>5</SUB> &le; 0.045<br/>gini = 0.093<br/>samples = 601<br/>value = [6, 572, 23]>, fillcolor="#43e687"] ;
279 -> 281 ;
282 [label=<X<SUB>6</SUB> &le; 0.484<br/>gini = 0.061<br/>samples = 481<br/>value = [4, 466, 11]>, fillcolor="#3fe685"] ;
281 -> 282 ;
283 [label=<X<SUB>3</SUB> &le; -10.982<br/>gini = 0.05<br/>samples = 468<br/>value = [4, 456, 8]>, fillcolor="#3ee684"] ;
282 -> 283 ;
284 [label=<X<SUB>7</SUB> &le; 0.001<br/>gini = 0.175<br/>samples = 62<br/>value = [0, 56, 6]>, fillcolor="#4ee88e"] ;
283 -> 284 ;
285 [label=<gini = 0.0<br/>samples = 47<br/>value = [0, 47, 0]>, fillcolor="#39e581"] ;
284 -> 285 ;
286 [label=<gini = 0.48<br/>samples = 15<br/>value = [0, 9, 6]>, fillcolor="#bdf6d5"] ;
284 -> 286 ;
287 [label=<X<SUB>0</SUB> &le; 0.634<br/>gini = 0.029<br/>samples = 406<br/>value = [4, 400, 2]>, fillcolor="#3ce583"] ;
283 -> 287 ;
288 [label=<X<SUB>0</SUB> &le; 0.569<br/>gini = 0.016<br/>samples = 376<br/>value = [1, 373, 2]>, fillcolor="#3be582"] ;
287 -> 288 ;
289 [label=<gini = 0.0<br/>samples = 270<br/>value = [0, 270, 0]>, fillcolor="#39e581"] ;
288 -> 289 ;
290 [label=<X<SUB>0</SUB> &le; 0.572<br/>gini = 0.055<br/>samples = 106<br/>value = [1, 103, 2]>, fillcolor="#3fe685"] ;
288 -> 290 ;
291 [label=<gini = 0.444<br/>samples = 6<br/>value = [0, 4, 2]>, fillcolor="#9cf2c0"] ;
290 -> 291 ;
292 [label=<X<SUB>11</SUB> &le; 177054.5<br/>gini = 0.02<br/>samples = 100<br/>value = [1, 99, 0]>, fillcolor="#3be582"] ;
290 -> 292 ;
293 [label=<gini = 0.444<br/>samples = 3<br/>value = [1, 2, 0]>, fillcolor="#9cf2c0"] ;
292 -> 293 ;
294 [label=<gini = 0.0<br/>samples = 97<br/>value = [0, 97, 0]>, fillcolor="#39e581"] ;
292 -> 294 ;
295 [label=<X<SUB>9</SUB> &le; 0.4<br/>gini = 0.18<br/>samples = 30<br/>value = [3, 27, 0]>, fillcolor="#4fe88f"] ;
287 -> 295 ;
296 [label=<gini = 0.375<br/>samples = 4<br/>value = [3, 1, 0]>, fillcolor="#eeab7b"] ;
295 -> 296 ;
297 [label=<gini = 0.0<br/>samples = 26<br/>value = [0, 26, 0]>, fillcolor="#39e581"] ;
295 -> 297 ;
298 [label=<gini = 0.355<br/>samples = 13<br/>value = [0, 10, 3]>, fillcolor="#74eda7"] ;
282 -> 298 ;
299 [label=<X<SUB>1</SUB> &le; 0.636<br/>gini = 0.209<br/>samples = 120<br/>value = [2, 106, 12]>, fillcolor="#53e891"] ;
281 -> 299 ;
300 [label=<X<SUB>5</SUB> &le; 0.054<br/>gini = 0.517<br/>samples = 24<br/>value = [1, 14, 9]>, fillcolor="#bdf6d5"] ;
299 -> 300 ;
301 [label=<gini = 0.462<br/>samples = 13<br/>value = [1, 3, 9]>, fillcolor="#b388ef"] ;
300 -> 301 ;
302 [label=<gini = 0.0<br/>samples = 11<br/>value = [0, 11, 0]>, fillcolor="#39e581"] ;
300 -> 302 ;
303 [label=<X<SUB>11</SUB> &le; 334960.0<br/>gini = 0.081<br/>samples = 96<br/>value = [1, 92, 3]>, fillcolor="#42e686"] ;
299 -> 303 ;
304 [label=<X<SUB>10</SUB> &le; 107.218<br/>gini = 0.062<br/>samples = 95<br/>value = [1, 92, 2]>, fillcolor="#3fe685"] ;
303 -> 304 ;
305 [label=<X<SUB>11</SUB> &le; 202693.5<br/>gini = 0.254<br/>samples = 21<br/>value = [1, 18, 2]>, fillcolor="#58e995"] ;
304 -> 305 ;
306 [label=<gini = 0.625<br/>samples = 4<br/>value = [1, 1, 2]>, fillcolor="#d5bdf6"] ;
305 -> 306 ;
307 [label=<gini = 0.0<br/>samples = 17<br/>value = [0, 17, 0]>, fillcolor="#39e581"] ;
305 -> 307 ;
308 [label=<gini = 0.0<br/>samples = 74<br/>value = [0, 74, 0]>, fillcolor="#39e581"] ;
304 -> 308 ;
309 [label=<gini = 0.0<br/>samples = 1<br/>value = [0, 0, 1]>, fillcolor="#8139e5"] ;
303 -> 309 ;
310 [label=<X<SUB>1</SUB> &le; 0.714<br/>gini = 0.397<br/>samples = 114<br/>value = [19, 86, 9]>, fillcolor="#73eda6"] ;
260 -> 310 ;
311 [label=<X<SUB>0</SUB> &le; 0.516<br/>gini = 0.625<br/>samples = 38<br/>value = [13, 18, 7]>, fillcolor="#d7fae6"] ;
310 -> 311 ;
312 [label=<gini = 0.338<br/>samples = 15<br/>value = [1, 12, 2]>, fillcolor="#67eb9e"] ;
311 -> 312 ;
313 [label=<X<SUB>5</SUB> &le; 0.084<br/>gini = 0.612<br/>samples = 23<br/>value = [12, 6, 5]>, fillcolor="#f6d3b9"] ;
311 -> 313 ;
314 [label=<gini = 0.594<br/>samples = 8<br/>value = [1, 3, 4]>, fillcolor="#e6d7fa"] ;
313 -> 314 ;
315 [label=<gini = 0.418<br/>samples = 15<br/>value = [11, 3, 1]>, fillcolor="#eeab7b"] ;
313 -> 315 ;
316 [label=<X<SUB>0</SUB> &le; 0.652<br/>gini = 0.193<br/>samples = 76<br/>value = [6, 68, 2]>, fillcolor="#50e88f"] ;
310 -> 316 ;
317 [label=<X<SUB>10</SUB> &le; 95.497<br/>gini = 0.152<br/>samples = 74<br/>value = [4, 68, 2]>, fillcolor="#4ae78c"] ;
316 -> 317 ;
318 [label=<gini = 0.48<br/>samples = 5<br/>value = [3, 2, 0]>, fillcolor="#f6d5bd"] ;
317 -> 318 ;
319 [label=<X<SUB>2</SUB> &le; 10.5<br/>gini = 0.084<br/>samples = 69<br/>value = [1, 66, 2]>, fillcolor="#42e687"] ;
317 -> 319 ;
320 [label=<X<SUB>9</SUB> &le; 0.967<br/>gini = 0.058<br/>samples = 68<br/>value = [1, 66, 1]>, fillcolor="#3fe685"] ;
319 -> 320 ;
321 [label=<X<SUB>2</SUB> &le; 0.5<br/>gini = 0.029<br/>samples = 67<br/>value = [1, 66, 0]>, fillcolor="#3ce583"] ;
320 -> 321 ;
322 [label=<gini = 0.444<br/>samples = 3<br/>value = [1, 2, 0]>, fillcolor="#9cf2c0"] ;
321 -> 322 ;
323 [label=<gini = 0.0<br/>samples = 64<br/>value = [0, 64, 0]>, fillcolor="#39e581"] ;
321 -> 323 ;
324 [label=<gini = 0.0<br/>samples = 1<br/>value = [0, 0, 1]>, fillcolor="#8139e5"] ;
320 -> 324 ;
325 [label=<gini = 0.0<br/>samples = 1<br/>value = [0, 0, 1]>, fillcolor="#8139e5"] ;
319 -> 325 ;
326 [label=<gini = 0.0<br/>samples = 2<br/>value = [2, 0, 0]>, fillcolor="#e58139"] ;
316 -> 326 ;
327 [label=<X<SUB>5</SUB> &le; 0.039<br/>gini = 0.422<br/>samples = 75<br/>value = [1, 53, 21]>, fillcolor="#8af0b4"] ;
259 -> 327 ;
328 [label=<X<SUB>0</SUB> &le; 0.603<br/>gini = 0.223<br/>samples = 47<br/>value = [0, 41, 6]>, fillcolor="#56e993"] ;
327 -> 328 ;
329 [label=<X<SUB>1</SUB> &le; 0.784<br/>gini = 0.1<br/>samples = 38<br/>value = [0, 36, 2]>, fillcolor="#44e688"] ;
328 -> 329 ;
330 [label=<gini = 0.0<br/>samples = 35<br/>value = [0, 35, 0]>, fillcolor="#39e581"] ;
329 -> 330 ;
331 [label=<gini = 0.444<br/>samples = 3<br/>value = [0, 1, 2]>, fillcolor="#c09cf2"] ;
329 -> 331 ;
332 [label=<gini = 0.494<br/>samples = 9<br/>value = [0, 5, 4]>, fillcolor="#d7fae6"] ;
328 -> 332 ;
333 [label=<X<SUB>1</SUB> &le; 0.733<br/>gini = 0.528<br/>samples = 28<br/>value = [1, 12, 15]>, fillcolor="#e7dafa"] ;
327 -> 333 ;
334 [label=<gini = 0.153<br/>samples = 12<br/>value = [1, 0, 11]>, fillcolor="#8c4be7"] ;
333 -> 334 ;
335 [label=<gini = 0.375<br/>samples = 16<br/>value = [0, 12, 4]>, fillcolor="#7beeab"] ;
333 -> 335 ;
336 [label=<X<SUB>9</SUB> &le; 0.29<br/>gini = 0.513<br/>samples = 168<br/>value = [3, 90, 75]>, fillcolor="#dffbeb"] ;
188 -> 336 ;
337 [label=<X<SUB>6</SUB> &le; 0.098<br/>gini = 0.224<br/>samples = 40<br/>value = [1, 35, 4]>, fillcolor="#54e992"] ;
336 -> 337 ;
338 [label=<gini = 0.5<br/>samples = 2<br/>value = [1, 0, 1]>, fillcolor="#ffffff"] ;
337 -> 338 ;
339 [label=<X<SUB>9</SUB> &le; 0.253<br/>gini = 0.145<br/>samples = 38<br/>value = [0, 35, 3]>, fillcolor="#4ae78c"] ;
337 -> 339 ;
340 [label=<gini = 0.0<br/>samples = 28<br/>value = [0, 28, 0]>, fillcolor="#39e581"] ;
339 -> 340 ;
341 [label=<gini = 0.42<br/>samples = 10<br/>value = [0, 7, 3]>, fillcolor="#8ef0b7"] ;
339 -> 341 ;
342 [label=<X<SUB>8</SUB> &le; 0.713<br/>gini = 0.507<br/>samples = 128<br/>value = [2, 55, 71]>, fillcolor="#e3d4f9"] ;
336 -> 342 ;
343 [label=<X<SUB>5</SUB> &le; 0.032<br/>gini = 0.472<br/>samples = 109<br/>value = [2, 37, 70]>, fillcolor="#c5a4f3"] ;
342 -> 343 ;
344 [label=<gini = 0.278<br/>samples = 18<br/>value = [0, 15, 3]>, fillcolor="#61ea9a"] ;
343 -> 344 ;
345 [label=<X<SUB>10</SUB> &le; 141.699<br/>gini = 0.399<br/>samples = 91<br/>value = [2, 22, 67]>, fillcolor="#ad7eee"] ;
343 -> 345 ;
346 [label=<X<SUB>6</SUB> &le; 0.255<br/>gini = 0.276<br/>samples = 74<br/>value = [1, 11, 62]>, fillcolor="#995fea"] ;
345 -> 346 ;
347 [label=<X<SUB>11</SUB> &le; 472520.0<br/>gini = 0.457<br/>samples = 28<br/>value = [1, 8, 19]>, fillcolor="#ba92f1"] ;
346 -> 347 ;
348 [label=<gini = 0.227<br/>samples = 16<br/>value = [1, 1, 14]>, fillcolor="#9253e8"] ;
347 -> 348 ;
349 [label=<gini = 0.486<br/>samples = 12<br/>value = [0, 7, 5]>, fillcolor="#c6f8db"] ;
347 -> 349 ;
350 [label=<X<SUB>9</SUB> &le; 0.953<br/>gini = 0.122<br/>samples = 46<br/>value = [0, 3, 43]>, fillcolor="#8a47e7"] ;
346 -> 350 ;
351 [label=<X<SUB>8</SUB> &le; 0.052<br/>gini = 0.085<br/>samples = 45<br/>value = [0, 2, 43]>, fillcolor="#8742e6"] ;
350 -> 351 ;
352 [label=<gini = 0.5<br/>samples = 2<br/>value = [0, 1, 1]>, fillcolor="#ffffff"] ;
351 -> 352 ;
353 [label=<X<SUB>3</SUB> &le; -5.366<br/>gini = 0.045<br/>samples = 43<br/>value = [0, 1, 42]>, fillcolor="#843ee6"] ;
351 -> 353 ;
354 [label=<gini = 0.0<br/>samples = 41<br/>value = [0, 0, 41]>, fillcolor="#8139e5"] ;
353 -> 354 ;
355 [label=<gini = 0.5<br/>samples = 2<br/>value = [0, 1, 1]>, fillcolor="#ffffff"] ;
353 -> 355 ;
356 [label=<gini = 0.0<br/>samples = 1<br/>value = [0, 1, 0]>, fillcolor="#39e581"] ;
350 -> 356 ;
357 [label=<gini = 0.491<br/>samples = 17<br/>value = [1, 11, 5]>, fillcolor="#9cf2c0"] ;
345 -> 357 ;
358 [label=<gini = 0.1<br/>samples = 19<br/>value = [0, 18, 1]>, fillcolor="#44e688"] ;
342 -> 358 ;
359 [label=<X<SUB>6</SUB> &le; 0.014<br/>gini = 0.46<br/>samples = 1110<br/>value = [4, 716, 390]>, fillcolor="#a5f3c6"] ;
3 -> 359 ;
360 [label=<X<SUB>6</SUB> &le; 0.001<br/>gini = 0.187<br/>samples = 538<br/>value = [1, 482, 55]>, fillcolor="#50e890"] ;
359 -> 360 ;
361 [label=<X<SUB>8</SUB> &le; 0.032<br/>gini = 0.083<br/>samples = 348<br/>value = [1, 333, 14]>, fillcolor="#42e687"] ;
360 -> 361 ;
362 [label=<gini = 0.0<br/>samples = 2<br/>value = [0, 0, 2]>, fillcolor="#8139e5"] ;
361 -> 362 ;
363 [label=<X<SUB>7</SUB> &le; 0.949<br/>gini = 0.073<br/>samples = 346<br/>value = [1, 333, 12]>, fillcolor="#41e686"] ;
361 -> 363 ;
364 [label=<X<SUB>0</SUB> &le; 0.583<br/>gini = 0.063<br/>samples = 341<br/>value = [1, 330, 10]>, fillcolor="#40e685"] ;
363 -> 364 ;
365 [label=<X<SUB>3</SUB> &le; -12.845<br/>gini = 0.043<br/>samples = 318<br/>value = [0, 311, 7]>, fillcolor="#3de684"] ;
364 -> 365 ;
366 [label=<gini = 0.32<br/>samples = 5<br/>value = [0, 4, 1]>, fillcolor="#6aeca0"] ;
365 -> 366 ;
367 [label=<X<SUB>9</SUB> &le; 0.383<br/>gini = 0.038<br/>samples = 313<br/>value = [0, 307, 6]>, fillcolor="#3de683"] ;
365 -> 367 ;
368 [label=<gini = 0.0<br/>samples = 153<br/>value = [0, 153, 0]>, fillcolor="#39e581"] ;
367 -> 368 ;
369 [label=<X<SUB>11</SUB> &le; 455753.5<br/>gini = 0.072<br/>samples = 160<br/>value = [0, 154, 6]>, fillcolor="#41e686"] ;
367 -> 369 ;
370 [label=<X<SUB>6</SUB> &le; 0.001<br/>gini = 0.061<br/>samples = 159<br/>value = [0, 154, 5]>, fillcolor="#3fe685"] ;
369 -> 370 ;
371 [label=<X<SUB>12</SUB> &le; 3.5<br/>gini = 0.05<br/>samples = 155<br/>value = [0, 151, 4]>, fillcolor="#3ee684"] ;
370 -> 371 ;
372 [label=<gini = 0.375<br/>samples = 4<br/>value = [0, 3, 1]>, fillcolor="#7beeab"] ;
371 -> 372 ;
373 [label=<X<SUB>10</SUB> &le; 100.047<br/>gini = 0.039<br/>samples = 151<br/>value = [0, 148, 3]>, fillcolor="#3de684"] ;
371 -> 373 ;
374 [label=<X<SUB>10</SUB> &le; 99.84<br/>gini = 0.157<br/>samples = 35<br/>value = [0, 32, 3]>, fillcolor="#4ce78d"] ;
373 -> 374 ;
375 [label=<X<SUB>9</SUB> &le; 0.403<br/>gini = 0.111<br/>samples = 34<br/>value = [0, 32, 2]>, fillcolor="#45e789"] ;
374 -> 375 ;
376 [label=<gini = 0.0<br/>samples = 1<br/>value = [0, 0, 1]>, fillcolor="#8139e5"] ;
375 -> 376 ;
377 [label=<X<SUB>8</SUB> &le; 0.348<br/>gini = 0.059<br/>samples = 33<br/>value = [0, 32, 1]>, fillcolor="#3fe685"] ;
375 -> 377 ;
378 [label=<gini = 0.0<br/>samples = 29<br/>value = [0, 29, 0]>, fillcolor="#39e581"] ;
377 -> 378 ;
379 [label=<gini = 0.375<br/>samples = 4<br/>value = [0, 3, 1]>, fillcolor="#7beeab"] ;
377 -> 379 ;
380 [label=<gini = 0.0<br/>samples = 1<br/>value = [0, 0, 1]>, fillcolor="#8139e5"] ;
374 -> 380 ;
381 [label=<gini = 0.0<br/>samples = 116<br/>value = [0, 116, 0]>, fillcolor="#39e581"] ;
373 -> 381 ;
382 [label=<gini = 0.375<br/>samples = 4<br/>value = [0, 3, 1]>, fillcolor="#7beeab"] ;
370 -> 382 ;
383 [label=<gini = 0.0<br/>samples = 1<br/>value = [0, 0, 1]>, fillcolor="#8139e5"] ;
369 -> 383 ;
384 [label=<X<SUB>7</SUB> &le; 0.724<br/>gini = 0.299<br/>samples = 23<br/>value = [1, 19, 3]>, fillcolor="#61ea9a"] ;
364 -> 384 ;
385 [label=<gini = 0.111<br/>samples = 17<br/>value = [1, 16, 0]>, fillcolor="#45e789"] ;
384 -> 385 ;
386 [label=<gini = 0.5<br/>samples = 6<br/>value = [0, 3, 3]>, fillcolor="#ffffff"] ;
384 -> 386 ;
387 [label=<gini = 0.48<br/>samples = 5<br/>value = [0, 3, 2]>, fillcolor="#bdf6d5"] ;
363 -> 387 ;
388 [label=<X<SUB>7</SUB> &le; 0.734<br/>gini = 0.338<br/>samples = 190<br/>value = [0, 149, 41]>, fillcolor="#6feca4"] ;
360 -> 388 ;
389 [label=<X<SUB>3</SUB> &le; -4.806<br/>gini = 0.12<br/>samples = 78<br/>value = [0, 73, 5]>, fillcolor="#47e78a"] ;
388 -> 389 ;
390 [label=<X<SUB>0</SUB> &le; 0.609<br/>gini = 0.056<br/>samples = 69<br/>value = [0, 67, 2]>, fillcolor="#3fe685"] ;
389 -> 390 ;
391 [label=<gini = 0.0<br/>samples = 64<br/>value = [0, 64, 0]>, fillcolor="#39e581"] ;
390 -> 391 ;
392 [label=<gini = 0.48<br/>samples = 5<br/>value = [0, 3, 2]>, fillcolor="#bdf6d5"] ;
390 -> 392 ;
393 [label=<gini = 0.444<br/>samples = 9<br/>value = [0, 6, 3]>, fillcolor="#9cf2c0"] ;
389 -> 393 ;
394 [label=<X<SUB>8</SUB> &le; 0.116<br/>gini = 0.436<br/>samples = 112<br/>value = [0, 76, 36]>, fillcolor="#97f1bd"] ;
388 -> 394 ;
395 [label=<X<SUB>9</SUB> &le; 0.483<br/>gini = 0.5<br/>samples = 57<br/>value = [0, 29, 28]>, fillcolor="#f8fefb"] ;
394 -> 395 ;
396 [label=<X<SUB>9</SUB> &le; 0.05<br/>gini = 0.408<br/>samples = 35<br/>value = [0, 25, 10]>, fillcolor="#88efb3"] ;
395 -> 396 ;
397 [label=<gini = 0.375<br/>samples = 4<br/>value = [0, 1, 3]>, fillcolor="#ab7bee"] ;
396 -> 397 ;
398 [label=<X<SUB>6</SUB> &le; 0.012<br/>gini = 0.35<br/>samples = 31<br/>value = [0, 24, 7]>, fillcolor="#73eda6"] ;
396 -> 398 ;
399 [label=<X<SUB>11</SUB> &le; 187767.0<br/>gini = 0.252<br/>samples = 27<br/>value = [0, 23, 4]>, fillcolor="#5bea97"] ;
398 -> 399 ;
400 [label=<gini = 0.444<br/>samples = 3<br/>value = [0, 1, 2]>, fillcolor="#c09cf2"] ;
399 -> 400 ;
401 [label=<X<SUB>5</SUB> &le; 0.055<br/>gini = 0.153<br/>samples = 24<br/>value = [0, 22, 2]>, fillcolor="#4be78c"] ;
399 -> 401 ;
402 [label=<gini = 0.0<br/>samples = 17<br/>value = [0, 17, 0]>, fillcolor="#39e581"] ;
401 -> 402 ;
403 [label=<gini = 0.408<br/>samples = 7<br/>value = [0, 5, 2]>, fillcolor="#88efb3"] ;
401 -> 403 ;
404 [label=<gini = 0.375<br/>samples = 4<br/>value = [0, 1, 3]>, fillcolor="#ab7bee"] ;
398 -> 404 ;
405 [label=<X<SUB>9</SUB> &le; 0.855<br/>gini = 0.298<br/>samples = 22<br/>value = [0, 4, 18]>, fillcolor="#9d65eb"] ;
395 -> 405 ;
406 [label=<gini = 0.111<br/>samples = 17<br/>value = [0, 1, 16]>, fillcolor="#8945e7"] ;
405 -> 406 ;
407 [label=<gini = 0.48<br/>samples = 5<br/>value = [0, 3, 2]>, fillcolor="#bdf6d5"] ;
405 -> 407 ;
408 [label=<X<SUB>7</SUB> &le; 0.739<br/>gini = 0.249<br/>samples = 55<br/>value = [0, 47, 8]>, fillcolor="#5be996"] ;
394 -> 408 ;
409 [label=<gini = 0.0<br/>samples = 2<br/>value = [0, 0, 2]>, fillcolor="#8139e5"] ;
408 -> 409 ;
410 [label=<X<SUB>10</SUB> &le; 158.016<br/>gini = 0.201<br/>samples = 53<br/>value = [0, 47, 6]>, fillcolor="#52e891"] ;
408 -> 410 ;
411 [label=<X<SUB>1</SUB> &le; 0.939<br/>gini = 0.122<br/>samples = 46<br/>value = [0, 43, 3]>, fillcolor="#47e78a"] ;
410 -> 411 ;
412 [label=<X<SUB>10</SUB> &le; 80.544<br/>gini = 0.085<br/>samples = 45<br/>value = [0, 43, 2]>, fillcolor="#42e687"] ;
411 -> 412 ;
413 [label=<gini = 0.0<br/>samples = 1<br/>value = [0, 0, 1]>, fillcolor="#8139e5"] ;
412 -> 413 ;
414 [label=<X<SUB>5</SUB> &le; 0.062<br/>gini = 0.044<br/>samples = 44<br/>value = [0, 43, 1]>, fillcolor="#3ee684"] ;
412 -> 414 ;
415 [label=<gini = 0.0<br/>samples = 40<br/>value = [0, 40, 0]>, fillcolor="#39e581"] ;
414 -> 415 ;
416 [label=<gini = 0.375<br/>samples = 4<br/>value = [0, 3, 1]>, fillcolor="#7beeab"] ;
414 -> 416 ;
417 [label=<gini = 0.0<br/>samples = 1<br/>value = [0, 0, 1]>, fillcolor="#8139e5"] ;
411 -> 417 ;
418 [label=<gini = 0.49<br/>samples = 7<br/>value = [0, 4, 3]>, fillcolor="#cef8e0"] ;
410 -> 418 ;
419 [label=<X<SUB>1</SUB> &le; 0.868<br/>gini = 0.49<br/>samples = 572<br/>value = [3, 234, 335]>, fillcolor="#d9c4f7"] ;
359 -> 419 ;
420 [label=<X<SUB>9</SUB> &le; 0.281<br/>gini = 0.472<br/>samples = 507<br/>value = [2, 188, 317]>, fillcolor="#ccaff4"] ;
419 -> 420 ;
421 [label=<X<SUB>3</SUB> &le; -7.56<br/>gini = 0.496<br/>samples = 115<br/>value = [1, 66, 48]>, fillcolor="#caf8dd"] ;
420 -> 421 ;
422 [label=<X<SUB>11</SUB> &le; 183100.0<br/>gini = 0.511<br/>samples = 92<br/>value = [1, 45, 46]>, fillcolor="#fcfbfe"] ;
421 -> 422 ;
423 [label=<gini = 0.255<br/>samples = 14<br/>value = [1, 1, 12]>, fillcolor="#9457e9"] ;
422 -> 423 ;
424 [label=<X<SUB>2</SUB> &le; 1.5<br/>gini = 0.492<br/>samples = 78<br/>value = [0, 44, 34]>, fillcolor="#d2f9e2"] ;
422 -> 424 ;
425 [label=<gini = 0.337<br/>samples = 14<br/>value = [0, 3, 11]>, fillcolor="#a36fec"] ;
424 -> 425 ;
426 [label=<X<SUB>2</SUB> &le; 4.5<br/>gini = 0.46<br/>samples = 64<br/>value = [0, 41, 23]>, fillcolor="#a8f4c8"] ;
424 -> 426 ;
427 [label=<X<SUB>0</SUB> &le; 0.537<br/>gini = 0.095<br/>samples = 20<br/>value = [0, 19, 1]>, fillcolor="#43e688"] ;
426 -> 427 ;
428 [label=<gini = 0.0<br/>samples = 18<br/>value = [0, 18, 0]>, fillcolor="#39e581"] ;
427 -> 428 ;
429 [label=<gini = 0.5<br/>samples = 2<br/>value = [0, 1, 1]>, fillcolor="#ffffff"] ;
427 -> 429 ;
430 [label=<X<SUB>2</SUB> &le; 5.5<br/>gini = 0.5<br/>samples = 44<br/>value = [0, 22, 22]>, fillcolor="#ffffff"] ;
426 -> 430 ;
431 [label=<gini = 0.0<br/>samples = 7<br/>value = [0, 0, 7]>, fillcolor="#8139e5"] ;
430 -> 431 ;
432 [label=<X<SUB>1</SUB> &le; 0.531<br/>gini = 0.482<br/>samples = 37<br/>value = [0, 22, 15]>, fillcolor="#c0f7d7"] ;
430 -> 432 ;
433 [label=<X<SUB>11</SUB> &le; 691097.5<br/>gini = 0.48<br/>samples = 20<br/>value = [0, 8, 12]>, fillcolor="#d5bdf6"] ;
432 -> 433 ;
434 [label=<gini = 0.415<br/>samples = 17<br/>value = [0, 5, 12]>, fillcolor="#b58bf0"] ;
433 -> 434 ;
435 [label=<gini = 0.0<br/>samples = 3<br/>value = [0, 3, 0]>, fillcolor="#39e581"] ;
433 -> 435 ;
436 [label=<gini = 0.291<br/>samples = 17<br/>value = [0, 14, 3]>, fillcolor="#63eb9c"] ;
432 -> 436 ;
437 [label=<X<SUB>5</SUB> &le; 0.075<br/>gini = 0.159<br/>samples = 23<br/>value = [0, 21, 2]>, fillcolor="#4ce78d"] ;
421 -> 437 ;
438 [label=<X<SUB>1</SUB> &le; 0.56<br/>gini = 0.087<br/>samples = 22<br/>value = [0, 21, 1]>, fillcolor="#42e687"] ;
437 -> 438 ;
439 [label=<gini = 0.444<br/>samples = 3<br/>value = [0, 2, 1]>, fillcolor="#9cf2c0"] ;
438 -> 439 ;
440 [label=<gini = 0.0<br/>samples = 19<br/>value = [0, 19, 0]>, fillcolor="#39e581"] ;
438 -> 440 ;
441 [label=<gini = 0.0<br/>samples = 1<br/>value = [0, 0, 1]>, fillcolor="#8139e5"] ;
437 -> 441 ;
442 [label=<X<SUB>5</SUB> &le; 0.03<br/>gini = 0.432<br/>samples = 392<br/>value = [1, 122, 269]>, fillcolor="#ba93f1"] ;
420 -> 442 ;
443 [label=<X<SUB>1</SUB> &le; 0.533<br/>gini = 0.462<br/>samples = 47<br/>value = [0, 30, 17]>, fillcolor="#a9f4c8"] ;
442 -> 443 ;
444 [label=<gini = 0.219<br/>samples = 8<br/>value = [0, 1, 7]>, fillcolor="#9355e9"] ;
443 -> 444 ;
445 [label=<X<SUB>6</SUB> &le; 0.376<br/>gini = 0.381<br/>samples = 39<br/>value = [0, 29, 10]>, fillcolor="#7deeac"] ;
443 -> 445 ;
446 [label=<X<SUB>9</SUB> &le; 0.919<br/>gini = 0.291<br/>samples = 34<br/>value = [0, 28, 6]>, fillcolor="#63eb9c"] ;
445 -> 446 ;
447 [label=<X<SUB>7</SUB> &le; 0.455<br/>gini = 0.219<br/>samples = 32<br/>value = [0, 28, 4]>, fillcolor="#55e993"] ;
446 -> 447 ;
448 [label=<gini = 0.444<br/>samples = 3<br/>value = [0, 1, 2]>, fillcolor="#c09cf2"] ;
447 -> 448 ;
449 [label=<X<SUB>10</SUB> &le; 91.486<br/>gini = 0.128<br/>samples = 29<br/>value = [0, 27, 2]>, fillcolor="#48e78a"] ;
447 -> 449 ;
450 [label=<gini = 0.444<br/>samples = 6<br/>value = [0, 4, 2]>, fillcolor="#9cf2c0"] ;
449 -> 450 ;
451 [label=<gini = 0.0<br/>samples = 23<br/>value = [0, 23, 0]>, fillcolor="#39e581"] ;
449 -> 451 ;
452 [label=<gini = 0.0<br/>samples = 2<br/>value = [0, 0, 2]>, fillcolor="#8139e5"] ;
446 -> 452 ;
453 [label=<gini = 0.32<br/>samples = 5<br/>value = [0, 1, 4]>, fillcolor="#a06aec"] ;
445 -> 453 ;
454 [label=<X<SUB>11</SUB> &le; 606661.5<br/>gini = 0.395<br/>samples = 345<br/>value = [1, 92, 252]>, fillcolor="#af82ef"] ;
442 -> 454 ;
455 [label=<X<SUB>7</SUB> &le; 0.949<br/>gini = 0.374<br/>samples = 327<br/>value = [1, 80, 246]>, fillcolor="#aa7aee"] ;
454 -> 455 ;
456 [label=<X<SUB>6</SUB> &le; 0.126<br/>gini = 0.36<br/>samples = 320<br/>value = [1, 74, 245]>, fillcolor="#a775ed"] ;
455 -> 456 ;
457 [label=<X<SUB>1</SUB> &le; 0.731<br/>gini = 0.44<br/>samples = 144<br/>value = [0, 47, 97]>, fillcolor="#be99f2"] ;
456 -> 457 ;
458 [label=<X<SUB>0</SUB> &le; 0.444<br/>gini = 0.364<br/>samples = 92<br/>value = [0, 22, 70]>, fillcolor="#a977ed"] ;
457 -> 458 ;
459 [label=<X<SUB>10</SUB> &le; 143.486<br/>gini = 0.478<br/>samples = 33<br/>value = [0, 13, 20]>, fillcolor="#d3baf6"] ;
458 -> 459 ;
460 [label=<X<SUB>3</SUB> &le; -11.852<br/>gini = 0.497<br/>samples = 24<br/>value = [0, 13, 11]>, fillcolor="#e1fbec"] ;
459 -> 460 ;
461 [label=<gini = 0.278<br/>samples = 6<br/>value = [0, 1, 5]>, fillcolor="#9a61ea"] ;
460 -> 461 ;
462 [label=<gini = 0.444<br/>samples = 18<br/>value = [0, 12, 6]>, fillcolor="#9cf2c0"] ;
460 -> 462 ;
463 [label=<gini = 0.0<br/>samples = 9<br/>value = [0, 0, 9]>, fillcolor="#8139e5"] ;
459 -> 463 ;
464 [label=<X<SUB>7</SUB> &le; 0.915<br/>gini = 0.259<br/>samples = 59<br/>value = [0, 9, 50]>, fillcolor="#985dea"] ;
458 -> 464 ;
465 [label=<X<SUB>10</SUB> &le; 188.271<br/>gini = 0.194<br/>samples = 55<br/>value = [0, 6, 49]>, fillcolor="#9051e8"] ;
464 -> 465 ;
466 [label=<X<SUB>11</SUB> &le; 423531.0<br/>gini = 0.168<br/>samples = 54<br/>value = [0, 5, 49]>, fillcolor="#8e4de8"] ;
465 -> 466 ;
467 [label=<X<SUB>6</SUB> &le; 0.018<br/>gini = 0.113<br/>samples = 50<br/>value = [0, 3, 47]>, fillcolor="#8946e7"] ;
466 -> 467 ;
468 [label=<gini = 0.5<br/>samples = 2<br/>value = [0, 1, 1]>, fillcolor="#ffffff"] ;
467 -> 468 ;
469 [label=<X<SUB>7</SUB> &le; 0.441<br/>gini = 0.08<br/>samples = 48<br/>value = [0, 2, 46]>, fillcolor="#8642e6"] ;
467 -> 469 ;
470 [label=<gini = 0.5<br/>samples = 2<br/>value = [0, 1, 1]>, fillcolor="#ffffff"] ;
469 -> 470 ;
471 [label=<X<SUB>10</SUB> &le; 172.515<br/>gini = 0.043<br/>samples = 46<br/>value = [0, 1, 45]>, fillcolor="#843de6"] ;
469 -> 471 ;
472 [label=<gini = 0.0<br/>samples = 42<br/>value = [0, 0, 42]>, fillcolor="#8139e5"] ;
471 -> 472 ;
473 [label=<gini = 0.375<br/>samples = 4<br/>value = [0, 1, 3]>, fillcolor="#ab7bee"] ;
471 -> 473 ;
474 [label=<gini = 0.5<br/>samples = 4<br/>value = [0, 2, 2]>, fillcolor="#ffffff"] ;
466 -> 474 ;
475 [label=<gini = 0.0<br/>samples = 1<br/>value = [0, 1, 0]>, fillcolor="#39e581"] ;
465 -> 475 ;
476 [label=<gini = 0.375<br/>samples = 4<br/>value = [0, 3, 1]>, fillcolor="#7beeab"] ;
464 -> 476 ;
477 [label=<X<SUB>2</SUB> &le; 1.5<br/>gini = 0.499<br/>samples = 52<br/>value = [0, 25, 27]>, fillcolor="#f6f0fd"] ;
457 -> 477 ;
478 [label=<gini = 0.0<br/>samples = 9<br/>value = [0, 0, 9]>, fillcolor="#8139e5"] ;
477 -> 478 ;
479 [label=<X<SUB>1</SUB> &le; 0.769<br/>gini = 0.487<br/>samples = 43<br/>value = [0, 25, 18]>, fillcolor="#c8f8dc"] ;
477 -> 479 ;
480 [label=<gini = 0.0<br/>samples = 9<br/>value = [0, 9, 0]>, fillcolor="#39e581"] ;
479 -> 480 ;
481 [label=<X<SUB>0</SUB> &le; 0.451<br/>gini = 0.498<br/>samples = 34<br/>value = [0, 16, 18]>, fillcolor="#f1e9fc"] ;
479 -> 481 ;
482 [label=<gini = 0.298<br/>samples = 11<br/>value = [0, 2, 9]>, fillcolor="#9d65eb"] ;
481 -> 482 ;
483 [label=<X<SUB>1</SUB> &le; 0.787<br/>gini = 0.476<br/>samples = 23<br/>value = [0, 14, 9]>, fillcolor="#b8f6d2"] ;
481 -> 483 ;
484 [label=<gini = 0.0<br/>samples = 3<br/>value = [0, 0, 3]>, fillcolor="#8139e5"] ;
483 -> 484 ;
485 [label=<X<SUB>1</SUB> &le; 0.851<br/>gini = 0.42<br/>samples = 20<br/>value = [0, 14, 6]>, fillcolor="#8ef0b7"] ;
483 -> 485 ;
486 [label=<gini = 0.32<br/>samples = 15<br/>value = [0, 12, 3]>, fillcolor="#6aeca0"] ;
485 -> 486 ;
487 [label=<gini = 0.48<br/>samples = 5<br/>value = [0, 2, 3]>, fillcolor="#d5bdf6"] ;
485 -> 487 ;
488 [label=<X<SUB>0</SUB> &le; 0.353<br/>gini = 0.269<br/>samples = 176<br/>value = [1, 27, 148]>, fillcolor="#995eea"] ;
456 -> 488 ;
489 [label=<gini = 0.498<br/>samples = 15<br/>value = [0, 7, 8]>, fillcolor="#efe6fc"] ;
488 -> 489 ;
490 [label=<X<SUB>9</SUB> &le; 0.968<br/>gini = 0.228<br/>samples = 161<br/>value = [1, 20, 140]>, fillcolor="#9456e9"] ;
488 -> 490 ;
491 [label=<X<SUB>10</SUB> &le; 110.017<br/>gini = 0.212<br/>samples = 159<br/>value = [1, 18, 140]>, fillcolor="#9254e9"] ;
490 -> 491 ;
492 [label=<X<SUB>9</SUB> &le; 0.424<br/>gini = 0.048<br/>samples = 82<br/>value = [0, 2, 80]>, fillcolor="#843ee6"] ;
491 -> 492 ;
493 [label=<X<SUB>9</SUB> &le; 0.416<br/>gini = 0.153<br/>samples = 24<br/>value = [0, 2, 22]>, fillcolor="#8c4be7"] ;
492 -> 493 ;
494 [label=<X<SUB>3</SUB> &le; -7.731<br/>gini = 0.083<br/>samples = 23<br/>value = [0, 1, 22]>, fillcolor="#8742e6"] ;
493 -> 494 ;
495 [label=<gini = 0.0<br/>samples = 21<br/>value = [0, 0, 21]>, fillcolor="#8139e5"] ;
494 -> 495 ;
496 [label=<gini = 0.5<br/>samples = 2<br/>value = [0, 1, 1]>, fillcolor="#ffffff"] ;
494 -> 496 ;
497 [label=<gini = 0.0<br/>samples = 1<br/>value = [0, 1, 0]>, fillcolor="#39e581"] ;
493 -> 497 ;
498 [label=<gini = 0.0<br/>samples = 58<br/>value = [0, 0, 58]>, fillcolor="#8139e5"] ;
492 -> 498 ;
499 [label=<X<SUB>1</SUB> &le; 0.824<br/>gini = 0.349<br/>samples = 77<br/>value = [1, 16, 60]>, fillcolor="#a470ec"] ;
491 -> 499 ;
500 [label=<X<SUB>8</SUB> &le; 0.248<br/>gini = 0.312<br/>samples = 74<br/>value = [1, 13, 60]>, fillcolor="#9e66eb"] ;
499 -> 500 ;
501 [label=<X<SUB>9</SUB> &le; 0.293<br/>gini = 0.203<br/>samples = 61<br/>value = [0, 7, 54]>, fillcolor="#9153e8"] ;
500 -> 501 ;
502 [label=<gini = 0.0<br/>samples = 1<br/>value = [0, 1, 0]>, fillcolor="#39e581"] ;
501 -> 502 ;
503 [label=<X<SUB>10</SUB> &le; 111.453<br/>gini = 0.18<br/>samples = 60<br/>value = [0, 6, 54]>, fillcolor="#8f4fe8"] ;
501 -> 503 ;
504 [label=<gini = 0.0<br/>samples = 1<br/>value = [0, 1, 0]>, fillcolor="#39e581"] ;
503 -> 504 ;
505 [label=<X<SUB>4</SUB> &le; 0.5<br/>gini = 0.155<br/>samples = 59<br/>value = [0, 5, 54]>, fillcolor="#8d4be7"] ;
503 -> 505 ;
506 [label=<gini = 0.0<br/>samples = 31<br/>value = [0, 0, 31]>, fillcolor="#8139e5"] ;
505 -> 506 ;
507 [label=<X<SUB>7</SUB> &le; 0.532<br/>gini = 0.293<br/>samples = 28<br/>value = [0, 5, 23]>, fillcolor="#9c64eb"] ;
505 -> 507 ;
508 [label=<gini = 0.444<br/>samples = 3<br/>value = [0, 2, 1]>, fillcolor="#9cf2c0"] ;
507 -> 508 ;
509 [label=<X<SUB>0</SUB> &le; 0.602<br/>gini = 0.211<br/>samples = 25<br/>value = [0, 3, 22]>, fillcolor="#9254e9"] ;
507 -> 509 ;
510 [label=<gini = 0.0<br/>samples = 13<br/>value = [0, 0, 13]>, fillcolor="#8139e5"] ;
509 -> 510 ;
511 [label=<gini = 0.375<br/>samples = 12<br/>value = [0, 3, 9]>, fillcolor="#ab7bee"] ;
509 -> 511 ;
512 [label=<gini = 0.568<br/>samples = 13<br/>value = [1, 6, 6]>, fillcolor="#ffffff"] ;
500 -> 512 ;
513 [label=<gini = 0.0<br/>samples = 3<br/>value = [0, 3, 0]>, fillcolor="#39e581"] ;
499 -> 513 ;
514 [label=<gini = 0.0<br/>samples = 2<br/>value = [0, 2, 0]>, fillcolor="#39e581"] ;
490 -> 514 ;
515 [label=<gini = 0.245<br/>samples = 7<br/>value = [0, 6, 1]>, fillcolor="#5ae996"] ;
455 -> 515 ;
516 [label=<gini = 0.444<br/>samples = 18<br/>value = [0, 12, 6]>, fillcolor="#9cf2c0"] ;
454 -> 516 ;
517 [label=<X<SUB>9</SUB> &le; 0.757<br/>gini = 0.422<br/>samples = 65<br/>value = [1, 46, 18]>, fillcolor="#89f0b4"] ;
419 -> 517 ;
518 [label=<X<SUB>5</SUB> &le; 0.074<br/>gini = 0.291<br/>samples = 51<br/>value = [0, 42, 9]>, fillcolor="#63eb9c"] ;
517 -> 518 ;
519 [label=<X<SUB>3</SUB> &le; -10.109<br/>gini = 0.062<br/>samples = 31<br/>value = [0, 30, 1]>, fillcolor="#40e685"] ;
518 -> 519 ;
520 [label=<gini = 0.0<br/>samples = 1<br/>value = [0, 0, 1]>, fillcolor="#8139e5"] ;
519 -> 520 ;
521 [label=<gini = 0.0<br/>samples = 30<br/>value = [0, 30, 0]>, fillcolor="#39e581"] ;
519 -> 521 ;
522 [label=<X<SUB>0</SUB> &le; 0.44<br/>gini = 0.48<br/>samples = 20<br/>value = [0, 12, 8]>, fillcolor="#bdf6d5"] ;
518 -> 522 ;
523 [label=<gini = 0.198<br/>samples = 9<br/>value = [0, 8, 1]>, fillcolor="#52e891"] ;
522 -> 523 ;
524 [label=<gini = 0.463<br/>samples = 11<br/>value = [0, 4, 7]>, fillcolor="#c9aaf4"] ;
522 -> 524 ;
525 [label=<gini = 0.5<br/>samples = 14<br/>value = [1, 4, 9]>, fillcolor="#c09cf2"] ;
517 -> 525 ;
526 [label=<X<SUB>7</SUB> &le; 0.183<br/>gini = 0.649<br/>samples = 2177<br/>value = [653, 957, 567]>, fillcolor="#d8fae6"] ;
2 -> 526 ;
527 [label=<X<SUB>5</SUB> &le; 0.054<br/>gini = 0.593<br/>samples = 1674<br/>value = [630, 837, 207]>, fillcolor="#d8fae6"] ;
526 -> 527 ;
528 [label=<X<SUB>9</SUB> &le; 0.252<br/>gini = 0.463<br/>samples = 816<br/>value = [139, 572, 105]>, fillcolor="#80eeae"] ;
527 -> 528 ;
529 [label=<X<SUB>7</SUB> &le; 0.0<br/>gini = 0.461<br/>samples = 64<br/>value = [44, 16, 4]>, fillcolor="#f0b68c"] ;
528 -> 529 ;
530 [label=<X<SUB>5</SUB> &le; 0.029<br/>gini = 0.097<br/>samples = 39<br/>value = [37, 2, 0]>, fillcolor="#e68844"] ;
529 -> 530 ;
531 [label=<gini = 0.0<br/>samples = 1<br/>value = [0, 1, 0]>, fillcolor="#39e581"] ;
530 -> 531 ;
532 [label=<X<SUB>11</SUB> &le; 266986.5<br/>gini = 0.051<br/>samples = 38<br/>value = [37, 1, 0]>, fillcolor="#e6843e"] ;
530 -> 532 ;
533 [label=<gini = 0.0<br/>samples = 36<br/>value = [36, 0, 0]>, fillcolor="#e58139"] ;
532 -> 533 ;
534 [label=<gini = 0.5<br/>samples = 2<br/>value = [1, 1, 0]>, fillcolor="#ffffff"] ;
532 -> 534 ;
535 [label=<X<SUB>11</SUB> &le; 168578.5<br/>gini = 0.582<br/>samples = 25<br/>value = [7, 14, 4]>, fillcolor="#b2f5ce"] ;
529 -> 535 ;
536 [label=<gini = 0.408<br/>samples = 7<br/>value = [5, 0, 2]>, fillcolor="#efb388"] ;
535 -> 536 ;
537 [label=<gini = 0.37<br/>samples = 18<br/>value = [2, 14, 2]>, fillcolor="#6aeca0"] ;
535 -> 537 ;
538 [label=<X<SUB>9</SUB> &le; 0.722<br/>gini = 0.419<br/>samples = 752<br/>value = [95, 556, 101]>, fillcolor="#75eda7"] ;
528 -> 538 ;
539 [label=<X<SUB>0</SUB> &le; 0.741<br/>gini = 0.515<br/>samples = 399<br/>value = [83, 259, 57]>, fillcolor="#91f1b9"] ;
538 -> 539 ;
540 [label=<X<SUB>7</SUB> &le; 0.026<br/>gini = 0.391<br/>samples = 269<br/>value = [29, 205, 35]>, fillcolor="#6feca3"] ;
539 -> 540 ;
541 [label=<X<SUB>5</SUB> &le; 0.036<br/>gini = 0.345<br/>samples = 240<br/>value = [28, 191, 21]>, fillcolor="#67eb9e"] ;
540 -> 541 ;
542 [label=<X<SUB>6</SUB> &le; 0.484<br/>gini = 0.167<br/>samples = 111<br/>value = [2, 101, 8]>, fillcolor="#4ce88d"] ;
541 -> 542 ;
543 [label=<X<SUB>11</SUB> &le; 310420.0<br/>gini = 0.137<br/>samples = 109<br/>value = [1, 101, 7]>, fillcolor="#49e78b"] ;
542 -> 543 ;
544 [label=<X<SUB>1</SUB> &le; 0.819<br/>gini = 0.078<br/>samples = 99<br/>value = [1, 95, 3]>, fillcolor="#41e686"] ;
543 -> 544 ;
545 [label=<X<SUB>0</SUB> &le; 0.739<br/>gini = 0.059<br/>samples = 98<br/>value = [0, 95, 3]>, fillcolor="#3fe685"] ;
544 -> 545 ;
546 [label=<X<SUB>3</SUB> &le; -12.24<br/>gini = 0.04<br/>samples = 97<br/>value = [0, 95, 2]>, fillcolor="#3de684"] ;
545 -> 546 ;
547 [label=<gini = 0.32<br/>samples = 5<br/>value = [0, 4, 1]>, fillcolor="#6aeca0"] ;
546 -> 547 ;
548 [label=<X<SUB>8</SUB> &le; 0.078<br/>gini = 0.022<br/>samples = 92<br/>value = [0, 91, 1]>, fillcolor="#3be582"] ;
546 -> 548 ;
549 [label=<gini = 0.124<br/>samples = 15<br/>value = [0, 14, 1]>, fillcolor="#47e78a"] ;
548 -> 549 ;
550 [label=<gini = 0.0<br/>samples = 77<br/>value = [0, 77, 0]>, fillcolor="#39e581"] ;
548 -> 550 ;
551 [label=<gini = 0.0<br/>samples = 1<br/>value = [0, 0, 1]>, fillcolor="#8139e5"] ;
545 -> 551 ;
552 [label=<gini = 0.0<br/>samples = 1<br/>value = [1, 0, 0]>, fillcolor="#e58139"] ;
544 -> 552 ;
553 [label=<gini = 0.48<br/>samples = 10<br/>value = [0, 6, 4]>, fillcolor="#bdf6d5"] ;
543 -> 553 ;
554 [label=<gini = 0.5<br/>samples = 2<br/>value = [1, 0, 1]>, fillcolor="#ffffff"] ;
542 -> 554 ;
555 [label=<X<SUB>2</SUB> &le; 6.5<br/>gini = 0.462<br/>samples = 129<br/>value = [26, 90, 13]>, fillcolor="#84efb1"] ;
541 -> 555 ;
556 [label=<X<SUB>0</SUB> &le; 0.715<br/>gini = 0.374<br/>samples = 89<br/>value = [10, 69, 10]>, fillcolor="#6beca1"] ;
555 -> 556 ;
557 [label=<X<SUB>6</SUB> &le; 0.427<br/>gini = 0.217<br/>samples = 67<br/>value = [3, 59, 5]>, fillcolor="#53e891"] ;
556 -> 557 ;
558 [label=<X<SUB>10</SUB> &le; 159.994<br/>gini = 0.174<br/>samples = 64<br/>value = [3, 58, 3]>, fillcolor="#4ce88d"] ;
557 -> 558 ;
559 [label=<X<SUB>3</SUB> &le; -11.275<br/>gini = 0.149<br/>samples = 63<br/>value = [2, 58, 3]>, fillcolor="#49e78c"] ;
558 -> 559 ;
560 [label=<gini = 0.444<br/>samples = 6<br/>value = [0, 4, 2]>, fillcolor="#9cf2c0"] ;
559 -> 560 ;
561 [label=<X<SUB>6</SUB> &le; 0.002<br/>gini = 0.101<br/>samples = 57<br/>value = [2, 54, 1]>, fillcolor="#44e688"] ;
559 -> 561 ;
562 [label=<gini = 0.444<br/>samples = 3<br/>value = [1, 2, 0]>, fillcolor="#9cf2c0"] ;
561 -> 562 ;
563 [label=<X<SUB>10</SUB> &le; 150.969<br/>gini = 0.072<br/>samples = 54<br/>value = [1, 52, 1]>, fillcolor="#40e686"] ;
561 -> 563 ;
564 [label=<X<SUB>10</SUB> &le; 91.022<br/>gini = 0.038<br/>samples = 51<br/>value = [0, 50, 1]>, fillcolor="#3de684"] ;
563 -> 564 ;
565 [label=<gini = 0.198<br/>samples = 9<br/>value = [0, 8, 1]>, fillcolor="#52e891"] ;
564 -> 565 ;
566 [label=<gini = 0.0<br/>samples = 42<br/>value = [0, 42, 0]>, fillcolor="#39e581"] ;
564 -> 566 ;
567 [label=<gini = 0.444<br/>samples = 3<br/>value = [1, 2, 0]>, fillcolor="#9cf2c0"] ;
563 -> 567 ;
568 [label=<gini = 0.0<br/>samples = 1<br/>value = [1, 0, 0]>, fillcolor="#e58139"] ;
558 -> 568 ;
569 [label=<gini = 0.444<br/>samples = 3<br/>value = [0, 1, 2]>, fillcolor="#c09cf2"] ;
557 -> 569 ;
570 [label=<X<SUB>8</SUB> &le; 0.244<br/>gini = 0.64<br/>samples = 22<br/>value = [7, 10, 5]>, fillcolor="#d7fae6"] ;
556 -> 570 ;
571 [label=<gini = 0.554<br/>samples = 17<br/>value = [2, 10, 5]>, fillcolor="#acf4ca"] ;
570 -> 571 ;
572 [label=<gini = 0.0<br/>samples = 5<br/>value = [5, 0, 0]>, fillcolor="#e58139"] ;
570 -> 572 ;
573 [label=<X<SUB>9</SUB> &le; 0.42<br/>gini = 0.559<br/>samples = 40<br/>value = [16, 21, 3]>, fillcolor="#d6fae5"] ;
555 -> 573 ;
574 [label=<gini = 0.219<br/>samples = 8<br/>value = [7, 1, 0]>, fillcolor="#e99355"] ;
573 -> 574 ;
575 [label=<X<SUB>5</SUB> &le; 0.05<br/>gini = 0.521<br/>samples = 32<br/>value = [9, 20, 3]>, fillcolor="#a0f3c3"] ;
573 -> 575 ;
576 [label=<X<SUB>8</SUB> &le; 0.097<br/>gini = 0.607<br/>samples = 22<br/>value = [9, 10, 3]>, fillcolor="#f0fdf5"] ;
575 -> 576 ;
577 [label=<gini = 0.245<br/>samples = 7<br/>value = [0, 6, 1]>, fillcolor="#5ae996"] ;
576 -> 577 ;
578 [label=<gini = 0.551<br/>samples = 15<br/>value = [9, 4, 2]>, fillcolor="#f3c6a5"] ;
576 -> 578 ;
579 [label=<gini = 0.0<br/>samples = 10<br/>value = [0, 10, 0]>, fillcolor="#39e581"] ;
575 -> 579 ;
580 [label=<X<SUB>6</SUB> &le; 0.164<br/>gini = 0.533<br/>samples = 29<br/>value = [1, 14, 14]>, fillcolor="#ffffff"] ;
540 -> 580 ;
581 [label=<gini = 0.398<br/>samples = 16<br/>value = [1, 12, 3]>, fillcolor="#76eda8"] ;
580 -> 581 ;
582 [label=<gini = 0.26<br/>samples = 13<br/>value = [0, 2, 11]>, fillcolor="#985dea"] ;
580 -> 582 ;
583 [label=<X<SUB>7</SUB> &le; 0.0<br/>gini = 0.626<br/>samples = 130<br/>value = [54, 54, 22]>, fillcolor="#ffffff"] ;
539 -> 583 ;
584 [label=<X<SUB>3</SUB> &le; -5.368<br/>gini = 0.418<br/>samples = 52<br/>value = [38, 11, 3]>, fillcolor="#eeac7d"] ;
583 -> 584 ;
585 [label=<X<SUB>6</SUB> &le; 0.346<br/>gini = 0.255<br/>samples = 35<br/>value = [30, 2, 3]>, fillcolor="#e99558"] ;
584 -> 585 ;
586 [label=<X<SUB>9</SUB> &le; 0.28<br/>gini = 0.062<br/>samples = 31<br/>value = [30, 1, 0]>, fillcolor="#e68540"] ;
585 -> 586 ;
587 [label=<gini = 0.0<br/>samples = 1<br/>value = [0, 1, 0]>, fillcolor="#39e581"] ;
586 -> 587 ;
588 [label=<gini = 0.0<br/>samples = 30<br/>value = [30, 0, 0]>, fillcolor="#e58139"] ;
586 -> 588 ;
589 [label=<gini = 0.375<br/>samples = 4<br/>value = [0, 1, 3]>, fillcolor="#ab7bee"] ;
585 -> 589 ;
590 [label=<gini = 0.498<br/>samples = 17<br/>value = [8, 9, 0]>, fillcolor="#e9fcf1"] ;
584 -> 590 ;
591 [label=<X<SUB>5</SUB> &le; 0.039<br/>gini = 0.595<br/>samples = 78<br/>value = [16, 43, 19]>, fillcolor="#aef4cc"] ;
583 -> 591 ;
592 [label=<X<SUB>3</SUB> &le; -11.089<br/>gini = 0.329<br/>samples = 36<br/>value = [2, 29, 5]>, fillcolor="#66eb9d"] ;
591 -> 592 ;
593 [label=<gini = 0.0<br/>samples = 2<br/>value = [0, 0, 2]>, fillcolor="#8139e5"] ;
592 -> 593 ;
594 [label=<X<SUB>6</SUB> &le; 0.013<br/>gini = 0.261<br/>samples = 34<br/>value = [2, 29, 3]>, fillcolor="#59e995"] ;
592 -> 594 ;
595 [label=<gini = 0.444<br/>samples = 3<br/>value = [2, 1, 0]>, fillcolor="#f2c09c"] ;
594 -> 595 ;
596 [label=<X<SUB>9</SUB> &le; 0.71<br/>gini = 0.175<br/>samples = 31<br/>value = [0, 28, 3]>, fillcolor="#4ee88e"] ;
594 -> 596 ;
597 [label=<X<SUB>9</SUB> &le; 0.38<br/>gini = 0.069<br/>samples = 28<br/>value = [0, 27, 1]>, fillcolor="#40e686"] ;
596 -> 597 ;
598 [label=<gini = 0.5<br/>samples = 2<br/>value = [0, 1, 1]>, fillcolor="#ffffff"] ;
597 -> 598 ;
599 [label=<gini = 0.0<br/>samples = 26<br/>value = [0, 26, 0]>, fillcolor="#39e581"] ;
597 -> 599 ;
600 [label=<gini = 0.444<br/>samples = 3<br/>value = [0, 1, 2]>, fillcolor="#c09cf2"] ;
596 -> 600 ;
601 [label=<X<SUB>1</SUB> &le; 0.802<br/>gini = 0.667<br/>samples = 42<br/>value = [14, 14, 14]>, fillcolor="#ffffff"] ;
591 -> 601 ;
602 [label=<X<SUB>6</SUB> &le; 0.078<br/>gini = 0.65<br/>samples = 35<br/>value = [14, 8, 13]>, fillcolor="#fef9f6"] ;
601 -> 602 ;
603 [label=<gini = 0.403<br/>samples = 12<br/>value = [9, 1, 2]>, fillcolor="#eda774"] ;
602 -> 603 ;
604 [label=<X<SUB>3</SUB> &le; -6.364<br/>gini = 0.631<br/>samples = 23<br/>value = [5, 7, 11]>, fillcolor="#e0cef8"] ;
602 -> 604 ;
605 [label=<gini = 0.547<br/>samples = 17<br/>value = [1, 7, 9]>, fillcolor="#e6d7fa"] ;
604 -> 605 ;
606 [label=<gini = 0.444<br/>samples = 6<br/>value = [4, 0, 2]>, fillcolor="#f2c09c"] ;
604 -> 606 ;
607 [label=<gini = 0.245<br/>samples = 7<br/>value = [0, 6, 1]>, fillcolor="#5ae996"] ;
601 -> 607 ;
608 [label=<X<SUB>7</SUB> &le; 0.036<br/>gini = 0.275<br/>samples = 353<br/>value = [12, 297, 44]>, fillcolor="#5dea98"] ;
538 -> 608 ;
609 [label=<X<SUB>11</SUB> &le; 421078.0<br/>gini = 0.229<br/>samples = 307<br/>value = [12, 268, 27]>, fillcolor="#55e993"] ;
608 -> 609 ;
610 [label=<X<SUB>6</SUB> &le; 0.09<br/>gini = 0.22<br/>samples = 305<br/>value = [12, 268, 25]>, fillcolor="#53e892"] ;
609 -> 610 ;
611 [label=<X<SUB>10</SUB> &le; 157.656<br/>gini = 0.111<br/>samples = 154<br/>value = [7, 145, 2]>, fillcolor="#45e789"] ;
610 -> 611 ;
612 [label=<X<SUB>10</SUB> &le; 96.426<br/>gini = 0.089<br/>samples = 151<br/>value = [5, 144, 2]>, fillcolor="#42e687"] ;
611 -> 612 ;
613 [label=<gini = 0.337<br/>samples = 14<br/>value = [3, 11, 0]>, fillcolor="#6feca3"] ;
612 -> 613 ;
614 [label=<X<SUB>11</SUB> &le; 169073.5<br/>gini = 0.057<br/>samples = 137<br/>value = [2, 133, 2]>, fillcolor="#3fe685"] ;
612 -> 614 ;
615 [label=<gini = 0.255<br/>samples = 14<br/>value = [1, 12, 1]>, fillcolor="#57e994"] ;
614 -> 615 ;
616 [label=<X<SUB>5</SUB> &le; 0.046<br/>gini = 0.032<br/>samples = 123<br/>value = [1, 121, 1]>, fillcolor="#3ce583"] ;
614 -> 616 ;
617 [label=<gini = 0.0<br/>samples = 107<br/>value = [0, 107, 0]>, fillcolor="#39e581"] ;
616 -> 617 ;
618 [label=<gini = 0.227<br/>samples = 16<br/>value = [1, 14, 1]>, fillcolor="#53e892"] ;
616 -> 618 ;
619 [label=<gini = 0.444<br/>samples = 3<br/>value = [2, 1, 0]>, fillcolor="#f2c09c"] ;
611 -> 619 ;
620 [label=<X<SUB>0</SUB> &le; 0.803<br/>gini = 0.312<br/>samples = 151<br/>value = [5, 123, 23]>, fillcolor="#64eb9d"] ;
610 -> 620 ;
621 [label=<X<SUB>6</SUB> &le; 0.092<br/>gini = 0.236<br/>samples = 133<br/>value = [1, 115, 17]>, fillcolor="#58e995"] ;
620 -> 621 ;
622 [label=<gini = 0.0<br/>samples = 2<br/>value = [0, 0, 2]>, fillcolor="#8139e5"] ;
621 -> 622 ;
623 [label=<X<SUB>7</SUB> &le; 0.0<br/>gini = 0.216<br/>samples = 131<br/>value = [1, 115, 15]>, fillcolor="#54e992"] ;
621 -> 623 ;
624 [label=<X<SUB>1</SUB> &le; 0.506<br/>gini = 0.043<br/>samples = 45<br/>value = [1, 44, 0]>, fillcolor="#3de684"] ;
623 -> 624 ;
625 [label=<gini = 0.444<br/>samples = 3<br/>value = [1, 2, 0]>, fillcolor="#9cf2c0"] ;
624 -> 625 ;
626 [label=<gini = 0.0<br/>samples = 42<br/>value = [0, 42, 0]>, fillcolor="#39e581"] ;
624 -> 626 ;
627 [label=<X<SUB>7</SUB> &le; 0.0<br/>gini = 0.288<br/>samples = 86<br/>value = [0, 71, 15]>, fillcolor="#63ea9c"] ;
623 -> 627 ;
628 [label=<gini = 0.0<br/>samples = 1<br/>value = [0, 0, 1]>, fillcolor="#8139e5"] ;
627 -> 628 ;
629 [label=<X<SUB>5</SUB> &le; 0.041<br/>gini = 0.275<br/>samples = 85<br/>value = [0, 71, 14]>, fillcolor="#60ea9a"] ;
627 -> 629 ;
630 [label=<X<SUB>10</SUB> &le; 92.37<br/>gini = 0.171<br/>samples = 53<br/>value = [0, 48, 5]>, fillcolor="#4ee88e"] ;
629 -> 630 ;
631 [label=<gini = 0.49<br/>samples = 7<br/>value = [0, 4, 3]>, fillcolor="#cef8e0"] ;
630 -> 631 ;
632 [label=<X<SUB>6</SUB> &le; 0.39<br/>gini = 0.083<br/>samples = 46<br/>value = [0, 44, 2]>, fillcolor="#42e687"] ;
630 -> 632 ;
633 [label=<X<SUB>7</SUB> &le; 0.002<br/>gini = 0.048<br/>samples = 41<br/>value = [0, 40, 1]>, fillcolor="#3ee684"] ;
632 -> 633 ;
634 [label=<gini = 0.0<br/>samples = 34<br/>value = [0, 34, 0]>, fillcolor="#39e581"] ;
633 -> 634 ;
635 [label=<gini = 0.245<br/>samples = 7<br/>value = [0, 6, 1]>, fillcolor="#5ae996"] ;
633 -> 635 ;
636 [label=<gini = 0.32<br/>samples = 5<br/>value = [0, 4, 1]>, fillcolor="#6aeca0"] ;
632 -> 636 ;
637 [label=<X<SUB>11</SUB> &le; 203274.0<br/>gini = 0.404<br/>samples = 32<br/>value = [0, 23, 9]>, fillcolor="#86efb2"] ;
629 -> 637 ;
638 [label=<gini = 0.444<br/>samples = 6<br/>value = [0, 2, 4]>, fillcolor="#c09cf2"] ;
637 -> 638 ;
639 [label=<X<SUB>6</SUB> &le; 0.134<br/>gini = 0.311<br/>samples = 26<br/>value = [0, 21, 5]>, fillcolor="#68eb9f"] ;
637 -> 639 ;
640 [label=<gini = 0.444<br/>samples = 3<br/>value = [0, 1, 2]>, fillcolor="#c09cf2"] ;
639 -> 640 ;
641 [label=<X<SUB>11</SUB> &le; 261794.5<br/>gini = 0.227<br/>samples = 23<br/>value = [0, 20, 3]>, fillcolor="#57e994"] ;
639 -> 641 ;
642 [label=<gini = 0.0<br/>samples = 11<br/>value = [0, 11, 0]>, fillcolor="#39e581"] ;
641 -> 642 ;
643 [label=<gini = 0.375<br/>samples = 12<br/>value = [0, 9, 3]>, fillcolor="#7beeab"] ;
641 -> 643 ;
644 [label=<gini = 0.642<br/>samples = 18<br/>value = [4, 8, 6]>, fillcolor="#defbea"] ;
620 -> 644 ;
645 [label=<gini = 0.0<br/>samples = 2<br/>value = [0, 0, 2]>, fillcolor="#8139e5"] ;
609 -> 645 ;
646 [label=<X<SUB>5</SUB> &le; 0.034<br/>gini = 0.466<br/>samples = 46<br/>value = [0, 29, 17]>, fillcolor="#adf4cb"] ;
608 -> 646 ;
647 [label=<X<SUB>0</SUB> &le; 0.676<br/>gini = 0.236<br/>samples = 22<br/>value = [0, 19, 3]>, fillcolor="#58e995"] ;
646 -> 647 ;
648 [label=<gini = 0.0<br/>samples = 2<br/>value = [0, 0, 2]>, fillcolor="#8139e5"] ;
647 -> 648 ;
649 [label=<X<SUB>11</SUB> &le; 155063.0<br/>gini = 0.095<br/>samples = 20<br/>value = [0, 19, 1]>, fillcolor="#43e688"] ;
647 -> 649 ;
650 [label=<gini = 0.0<br/>samples = 1<br/>value = [0, 0, 1]>, fillcolor="#8139e5"] ;
649 -> 650 ;
651 [label=<gini = 0.0<br/>samples = 19<br/>value = [0, 19, 0]>, fillcolor="#39e581"] ;
649 -> 651 ;
652 [label=<X<SUB>6</SUB> &le; 0.007<br/>gini = 0.486<br/>samples = 24<br/>value = [0, 10, 14]>, fillcolor="#dbc6f8"] ;
646 -> 652 ;
653 [label=<gini = 0.0<br/>samples = 6<br/>value = [0, 6, 0]>, fillcolor="#39e581"] ;
652 -> 653 ;
654 [label=<gini = 0.346<br/>samples = 18<br/>value = [0, 4, 14]>, fillcolor="#a572ec"] ;
652 -> 654 ;
655 [label=<X<SUB>7</SUB> &le; 0.0<br/>gini = 0.563<br/>samples = 858<br/>value = [491, 265, 102]>, fillcolor="#f5cfb4"] ;
527 -> 655 ;
656 [label=<X<SUB>1</SUB> &le; 0.814<br/>gini = 0.423<br/>samples = 542<br/>value = [394, 114, 34]>, fillcolor="#eead7d"] ;
655 -> 656 ;
657 [label=<X<SUB>9</SUB> &le; 0.782<br/>gini = 0.342<br/>samples = 459<br/>value = [365, 69, 25]>, fillcolor="#eb9f69"] ;
656 -> 657 ;
658 [label=<X<SUB>5</SUB> &le; 0.077<br/>gini = 0.261<br/>samples = 382<br/>value = [325, 46, 11]>, fillcolor="#e9965b"] ;
657 -> 658 ;
659 [label=<X<SUB>0</SUB> &le; 0.785<br/>gini = 0.458<br/>samples = 113<br/>value = [78, 28, 7]>, fillcolor="#f0b58b"] ;
658 -> 659 ;
660 [label=<X<SUB>7</SUB> &le; 0.0<br/>gini = 0.578<br/>samples = 62<br/>value = [31, 25, 6]>, fillcolor="#fbebdf"] ;
659 -> 660 ;
661 [label=<X<SUB>0</SUB> &le; 0.715<br/>gini = 0.475<br/>samples = 36<br/>value = [24, 10, 2]>, fillcolor="#f1bb94"] ;
660 -> 661 ;
662 [label=<gini = 0.547<br/>samples = 17<br/>value = [7, 9, 1]>, fillcolor="#d7fae6"] ;
661 -> 662 ;
663 [label=<gini = 0.194<br/>samples = 19<br/>value = [17, 1, 1]>, fillcolor="#e88f4f"] ;
661 -> 663 ;
664 [label=<X<SUB>4</SUB> &le; 0.5<br/>gini = 0.571<br/>samples = 26<br/>value = [7, 15, 4]>, fillcolor="#acf4ca"] ;
660 -> 664 ;
665 [label=<gini = 0.642<br/>samples = 9<br/>value = [3, 2, 4]>, fillcolor="#eadefb"] ;
664 -> 665 ;
666 [label=<gini = 0.36<br/>samples = 17<br/>value = [4, 13, 0]>, fillcolor="#76eda8"] ;
664 -> 666 ;
667 [label=<X<SUB>1</SUB> &le; 0.251<br/>gini = 0.147<br/>samples = 51<br/>value = [47, 3, 1]>, fillcolor="#e78c4a"] ;
659 -> 667 ;
668 [label=<gini = 0.0<br/>samples = 1<br/>value = [0, 0, 1]>, fillcolor="#8139e5"] ;
667 -> 668 ;
669 [label=<X<SUB>9</SUB> &le; 0.773<br/>gini = 0.113<br/>samples = 50<br/>value = [47, 3, 0]>, fillcolor="#e78946"] ;
667 -> 669 ;
670 [label=<X<SUB>8</SUB> &le; 0.052<br/>gini = 0.078<br/>samples = 49<br/>value = [47, 2, 0]>, fillcolor="#e68641"] ;
669 -> 670 ;
671 [label=<gini = 0.0<br/>samples = 1<br/>value = [0, 1, 0]>, fillcolor="#39e581"] ;
670 -> 671 ;
672 [label=<X<SUB>5</SUB> &le; 0.073<br/>gini = 0.041<br/>samples = 48<br/>value = [47, 1, 0]>, fillcolor="#e6843d"] ;
670 -> 672 ;
673 [label=<gini = 0.0<br/>samples = 40<br/>value = [40, 0, 0]>, fillcolor="#e58139"] ;
672 -> 673 ;
674 [label=<gini = 0.219<br/>samples = 8<br/>value = [7, 1, 0]>, fillcolor="#e99355"] ;
672 -> 674 ;
675 [label=<gini = 0.0<br/>samples = 1<br/>value = [0, 1, 0]>, fillcolor="#39e581"] ;
669 -> 675 ;
676 [label=<X<SUB>3</SUB> &le; -13.688<br/>gini = 0.152<br/>samples = 269<br/>value = [247, 18, 4]>, fillcolor="#e78c4a"] ;
658 -> 676 ;
677 [label=<gini = 0.5<br/>samples = 2<br/>value = [0, 1, 1]>, fillcolor="#ffffff"] ;
676 -> 677 ;
678 [label=<X<SUB>6</SUB> &le; 0.011<br/>gini = 0.14<br/>samples = 267<br/>value = [247, 17, 3]>, fillcolor="#e78b49"] ;
676 -> 678 ;
679 [label=<X<SUB>9</SUB> &le; 0.583<br/>gini = 0.41<br/>samples = 38<br/>value = [28, 8, 2]>, fillcolor="#eeab7b"] ;
678 -> 679 ;
680 [label=<X<SUB>0</SUB> &le; 0.715<br/>gini = 0.18<br/>samples = 30<br/>value = [27, 3, 0]>, fillcolor="#e88f4f"] ;
679 -> 680 ;
681 [label=<gini = 0.444<br/>samples = 3<br/>value = [1, 2, 0]>, fillcolor="#9cf2c0"] ;
680 -> 681 ;
682 [label=<X<SUB>11</SUB> &le; 154081.0<br/>gini = 0.071<br/>samples = 27<br/>value = [26, 1, 0]>, fillcolor="#e68641"] ;
680 -> 682 ;
683 [label=<gini = 0.444<br/>samples = 3<br/>value = [2, 1, 0]>, fillcolor="#f2c09c"] ;
682 -> 683 ;
684 [label=<gini = 0.0<br/>samples = 24<br/>value = [24, 0, 0]>, fillcolor="#e58139"] ;
682 -> 684 ;
685 [label=<gini = 0.531<br/>samples = 8<br/>value = [1, 5, 2]>, fillcolor="#9cf2c0"] ;
679 -> 685 ;
686 [label=<X<SUB>9</SUB> &le; 0.071<br/>gini = 0.084<br/>samples = 229<br/>value = [219, 9, 1]>, fillcolor="#e68742"] ;
678 -> 686 ;
687 [label=<gini = 0.0<br/>samples = 1<br/>value = [0, 1, 0]>, fillcolor="#39e581"] ;
686 -> 687 ;
688 [label=<X<SUB>11</SUB> &le; 307440.0<br/>gini = 0.076<br/>samples = 228<br/>value = [219, 8, 1]>, fillcolor="#e68641"] ;
686 -> 688 ;
689 [label=<X<SUB>0</SUB> &le; 0.69<br/>gini = 0.061<br/>samples = 224<br/>value = [217, 6, 1]>, fillcolor="#e6853f"] ;
688 -> 689 ;
690 [label=<X<SUB>6</SUB> &le; 0.042<br/>gini = 0.252<br/>samples = 27<br/>value = [23, 4, 0]>, fillcolor="#ea975b"] ;
689 -> 690 ;
691 [label=<gini = 0.32<br/>samples = 5<br/>value = [1, 4, 0]>, fillcolor="#6aeca0"] ;
690 -> 691 ;
692 [label=<gini = 0.0<br/>samples = 22<br/>value = [22, 0, 0]>, fillcolor="#e58139"] ;
690 -> 692 ;
693 [label=<X<SUB>10</SUB> &le; 81.941<br/>gini = 0.03<br/>samples = 197<br/>value = [194, 2, 1]>, fillcolor="#e5833c"] ;
689 -> 693 ;
694 [label=<gini = 0.444<br/>samples = 3<br/>value = [2, 1, 0]>, fillcolor="#f2c09c"] ;
693 -> 694 ;
695 [label=<X<SUB>3</SUB> &le; -12.019<br/>gini = 0.02<br/>samples = 194<br/>value = [192, 1, 1]>, fillcolor="#e5823b"] ;
693 -> 695 ;
696 [label=<gini = 0.375<br/>samples = 4<br/>value = [3, 0, 1]>, fillcolor="#eeab7b"] ;
695 -> 696 ;
697 [label=<X<SUB>8</SUB> &le; 0.061<br/>gini = 0.01<br/>samples = 190<br/>value = [189, 1, 0]>, fillcolor="#e5823a"] ;
695 -> 697 ;
698 [label=<gini = 0.32<br/>samples = 5<br/>value = [4, 1, 0]>, fillcolor="#eca06a"] ;
697 -> 698 ;
699 [label=<gini = 0.0<br/>samples = 185<br/>value = [185, 0, 0]>, fillcolor="#e58139"] ;
697 -> 699 ;
700 [label=<gini = 0.5<br/>samples = 4<br/>value = [2, 2, 0]>, fillcolor="#ffffff"] ;
688 -> 700 ;
701 [label=<X<SUB>0</SUB> &le; 0.805<br/>gini = 0.608<br/>samples = 77<br/>value = [40, 23, 14]>, fillcolor="#f7d7c1"] ;
657 -> 701 ;
702 [label=<X<SUB>1</SUB> &le; 0.699<br/>gini = 0.624<br/>samples = 45<br/>value = [16, 21, 8]>, fillcolor="#ddfbe9"] ;
701 -> 702 ;
703 [label=<X<SUB>11</SUB> &le; 242141.0<br/>gini = 0.376<br/>samples = 22<br/>value = [3, 17, 2]>, fillcolor="#6deca2"] ;
702 -> 703 ;
704 [label=<X<SUB>8</SUB> &le; 0.171<br/>gini = 0.255<br/>samples = 20<br/>value = [3, 17, 0]>, fillcolor="#5cea97"] ;
703 -> 704 ;
705 [label=<gini = 0.0<br/>samples = 14<br/>value = [0, 14, 0]>, fillcolor="#39e581"] ;
704 -> 705 ;
706 [label=<gini = 0.5<br/>samples = 6<br/>value = [3, 3, 0]>, fillcolor="#ffffff"] ;
704 -> 706 ;
707 [label=<gini = 0.0<br/>samples = 2<br/>value = [0, 0, 2]>, fillcolor="#8139e5"] ;
703 -> 707 ;
708 [label=<X<SUB>10</SUB> &le; 133.99<br/>gini = 0.582<br/>samples = 23<br/>value = [13, 4, 6]>, fillcolor="#f4cbad"] ;
702 -> 708 ;
709 [label=<gini = 0.639<br/>samples = 13<br/>value = [4, 3, 6]>, fillcolor="#e3d3f9"] ;
708 -> 709 ;
710 [label=<gini = 0.18<br/>samples = 10<br/>value = [9, 1, 0]>, fillcolor="#e88f4f"] ;
708 -> 710 ;
711 [label=<X<SUB>5</SUB> &le; 0.068<br/>gini = 0.398<br/>samples = 32<br/>value = [24, 2, 6]>, fillcolor="#eda876"] ;
701 -> 711 ;
712 [label=<gini = 0.375<br/>samples = 4<br/>value = [0, 1, 3]>, fillcolor="#ab7bee"] ;
711 -> 712 ;
713 [label=<X<SUB>2</SUB> &le; 7.5<br/>gini = 0.253<br/>samples = 28<br/>value = [24, 1, 3]>, fillcolor="#e99559"] ;
711 -> 713 ;
714 [label=<gini = 0.568<br/>samples = 9<br/>value = [5, 1, 3]>, fillcolor="#f6d5bd"] ;
713 -> 714 ;
715 [label=<gini = 0.0<br/>samples = 19<br/>value = [19, 0, 0]>, fillcolor="#e58139"] ;
713 -> 715 ;
716 [label=<X<SUB>0</SUB> &le; 0.758<br/>gini = 0.572<br/>samples = 83<br/>value = [29, 45, 9]>, fillcolor="#c4f7da"] ;
656 -> 716 ;
717 [label=<X<SUB>10</SUB> &le; 90.943<br/>gini = 0.339<br/>samples = 50<br/>value = [4, 40, 6]>, fillcolor="#66eb9e"] ;
716 -> 717 ;
718 [label=<gini = 0.571<br/>samples = 7<br/>value = [4, 2, 1]>, fillcolor="#f5cdb0"] ;
717 -> 718 ;
719 [label=<X<SUB>9</SUB> &le; 0.917<br/>gini = 0.206<br/>samples = 43<br/>value = [0, 38, 5]>, fillcolor="#53e892"] ;
717 -> 719 ;
720 [label=<X<SUB>7</SUB> &le; 0.0<br/>gini = 0.1<br/>samples = 38<br/>value = [0, 36, 2]>, fillcolor="#44e688"] ;
719 -> 720 ;
721 [label=<X<SUB>3</SUB> &le; -4.116<br/>gini = 0.054<br/>samples = 36<br/>value = [0, 35, 1]>, fillcolor="#3fe685"] ;
720 -> 721 ;
722 [label=<gini = 0.0<br/>samples = 28<br/>value = [0, 28, 0]>, fillcolor="#39e581"] ;
721 -> 722 ;
723 [label=<gini = 0.219<br/>samples = 8<br/>value = [0, 7, 1]>, fillcolor="#55e993"] ;
721 -> 723 ;
724 [label=<gini = 0.5<br/>samples = 2<br/>value = [0, 1, 1]>, fillcolor="#ffffff"] ;
720 -> 724 ;
725 [label=<gini = 0.48<br/>samples = 5<br/>value = [0, 2, 3]>, fillcolor="#d5bdf6"] ;
719 -> 725 ;
726 [label=<X<SUB>5</SUB> &le; 0.061<br/>gini = 0.395<br/>samples = 33<br/>value = [25, 5, 3]>, fillcolor="#eca572"] ;
716 -> 726 ;
727 [label=<gini = 0.0<br/>samples = 2<br/>value = [0, 2, 0]>, fillcolor="#39e581"] ;
726 -> 727 ;
728 [label=<X<SUB>7</SUB> &le; 0.0<br/>gini = 0.331<br/>samples = 31<br/>value = [25, 3, 3]>, fillcolor="#eb9c63"] ;
726 -> 728 ;
729 [label=<gini = 0.0<br/>samples = 18<br/>value = [18, 0, 0]>, fillcolor="#e58139"] ;
728 -> 729 ;
730 [label=<gini = 0.604<br/>samples = 13<br/>value = [7, 3, 3]>, fillcolor="#f5cdb0"] ;
728 -> 730 ;
731 [label=<X<SUB>0</SUB> &le; 0.743<br/>gini = 0.631<br/>samples = 316<br/>value = [97, 151, 68]>, fillcolor="#cef9e0"] ;
655 -> 731 ;
732 [label=<X<SUB>11</SUB> &le; 249020.5<br/>gini = 0.491<br/>samples = 157<br/>value = [23, 106, 28]>, fillcolor="#87efb3"] ;
731 -> 732 ;
733 [label=<X<SUB>9</SUB> &le; 0.262<br/>gini = 0.363<br/>samples = 114<br/>value = [17, 89, 8]>, fillcolor="#6ceca1"] ;
732 -> 733 ;
734 [label=<gini = 0.0<br/>samples = 4<br/>value = [4, 0, 0]>, fillcolor="#e58139"] ;
733 -> 734 ;
735 [label=<X<SUB>6</SUB> &le; 0.074<br/>gini = 0.326<br/>samples = 110<br/>value = [13, 89, 8]>, fillcolor="#64eb9c"] ;
733 -> 735 ;
736 [label=<X<SUB>11</SUB> &le; 111906.5<br/>gini = 0.132<br/>samples = 72<br/>value = [3, 67, 2]>, fillcolor="#47e78a"] ;
735 -> 736 ;
737 [label=<gini = 0.0<br/>samples = 1<br/>value = [1, 0, 0]>, fillcolor="#e58139"] ;
736 -> 737 ;
738 [label=<X<SUB>5</SUB> &le; 0.13<br/>gini = 0.108<br/>samples = 71<br/>value = [2, 67, 2]>, fillcolor="#44e788"] ;
736 -> 738 ;
739 [label=<X<SUB>3</SUB> &le; -7.884<br/>gini = 0.084<br/>samples = 69<br/>value = [1, 66, 2]>, fillcolor="#42e687"] ;
738 -> 739 ;
740 [label=<gini = 0.449<br/>samples = 7<br/>value = [1, 5, 1]>, fillcolor="#7beeab"] ;
739 -> 740 ;
741 [label=<X<SUB>8</SUB> &le; 0.056<br/>gini = 0.032<br/>samples = 62<br/>value = [0, 61, 1]>, fillcolor="#3ce583"] ;
739 -> 741 ;
742 [label=<gini = 0.278<br/>samples = 6<br/>value = [0, 5, 1]>, fillcolor="#61ea9a"] ;
741 -> 742 ;
743 [label=<gini = 0.0<br/>samples = 56<br/>value = [0, 56, 0]>, fillcolor="#39e581"] ;
741 -> 743 ;
744 [label=<gini = 0.5<br/>samples = 2<br/>value = [1, 1, 0]>, fillcolor="#ffffff"] ;
738 -> 744 ;
745 [label=<X<SUB>9</SUB> &le; 0.685<br/>gini = 0.571<br/>samples = 38<br/>value = [10, 22, 6]>, fillcolor="#aaf4c9"] ;
735 -> 745 ;
746 [label=<gini = 0.609<br/>samples = 19<br/>value = [10, 4, 5]>, fillcolor="#f6d2b8"] ;
745 -> 746 ;
747 [label=<gini = 0.1<br/>samples = 19<br/>value = [0, 18, 1]>, fillcolor="#44e688"] ;
745 -> 747 ;
748 [label=<X<SUB>2</SUB> &le; 7.5<br/>gini = 0.608<br/>samples = 43<br/>value = [6, 17, 20]>, fillcolor="#f0e8fc"] ;
732 -> 748 ;
749 [label=<X<SUB>5</SUB> &le; 0.087<br/>gini = 0.446<br/>samples = 23<br/>value = [1, 6, 16]>, fillcolor="#b58bf0"] ;
748 -> 749 ;
750 [label=<gini = 0.568<br/>samples = 13<br/>value = [1, 6, 6]>, fillcolor="#ffffff"] ;
749 -> 750 ;
751 [label=<gini = 0.0<br/>samples = 10<br/>value = [0, 0, 10]>, fillcolor="#8139e5"] ;
749 -> 751 ;
752 [label=<X<SUB>0</SUB> &le; 0.72<br/>gini = 0.595<br/>samples = 20<br/>value = [5, 11, 4]>, fillcolor="#b0f5cd"] ;
748 -> 752 ;
753 [label=<gini = 0.491<br/>samples = 17<br/>value = [5, 11, 1]>, fillcolor="#9cf2c0"] ;
752 -> 753 ;
754 [label=<gini = 0.0<br/>samples = 3<br/>value = [0, 0, 3]>, fillcolor="#8139e5"] ;
752 -> 754 ;
755 [label=<X<SUB>9</SUB> &le; 0.516<br/>gini = 0.64<br/>samples = 159<br/>value = [74, 45, 40]>, fillcolor="#f8dfcd"] ;
731 -> 755 ;
756 [label=<X<SUB>8</SUB> &le; 0.077<br/>gini = 0.31<br/>samples = 44<br/>value = [36, 2, 6]>, fillcolor="#ea9c63"] ;
755 -> 756 ;
757 [label=<gini = 0.375<br/>samples = 4<br/>value = [0, 1, 3]>, fillcolor="#ab7bee"] ;
756 -> 757 ;
758 [label=<X<SUB>5</SUB> &le; 0.056<br/>gini = 0.184<br/>samples = 40<br/>value = [36, 1, 3]>, fillcolor="#e88f4e"] ;
756 -> 758 ;
759 [label=<gini = 0.0<br/>samples = 1<br/>value = [0, 0, 1]>, fillcolor="#8139e5"] ;
758 -> 759 ;
760 [label=<X<SUB>0</SUB> &le; 0.786<br/>gini = 0.145<br/>samples = 39<br/>value = [36, 1, 2]>, fillcolor="#e78b49"] ;
758 -> 760 ;
761 [label=<gini = 0.46<br/>samples = 10<br/>value = [7, 1, 2]>, fillcolor="#efb083"] ;
760 -> 761 ;
762 [label=<gini = 0.0<br/>samples = 29<br/>value = [29, 0, 0]>, fillcolor="#e58139"] ;
760 -> 762 ;
763 [label=<X<SUB>5</SUB> &le; 0.116<br/>gini = 0.664<br/>samples = 115<br/>value = [38, 43, 34]>, fillcolor="#f2fdf7"] ;
755 -> 763 ;
764 [label=<X<SUB>11</SUB> &le; 207085.5<br/>gini = 0.632<br/>samples = 87<br/>value = [18, 41, 28]>, fillcolor="#d3f9e3"] ;
763 -> 764 ;
765 [label=<X<SUB>0</SUB> &le; 0.824<br/>gini = 0.541<br/>samples = 41<br/>value = [11, 25, 5]>, fillcolor="#a3f3c4"] ;
764 -> 765 ;
766 [label=<X<SUB>3</SUB> &le; -9.559<br/>gini = 0.282<br/>samples = 25<br/>value = [2, 21, 2]>, fillcolor="#5bea97"] ;
765 -> 766 ;
767 [label=<gini = 0.444<br/>samples = 3<br/>value = [0, 1, 2]>, fillcolor="#c09cf2"] ;
766 -> 767 ;
768 [label=<X<SUB>11</SUB> &le; 115204.5<br/>gini = 0.165<br/>samples = 22<br/>value = [2, 20, 0]>, fillcolor="#4de88e"] ;
766 -> 768 ;
769 [label=<gini = 0.0<br/>samples = 1<br/>value = [1, 0, 0]>, fillcolor="#e58139"] ;
768 -> 769 ;
770 [label=<X<SUB>0</SUB> &le; 0.78<br/>gini = 0.091<br/>samples = 21<br/>value = [1, 20, 0]>, fillcolor="#43e687"] ;
768 -> 770 ;
771 [label=<gini = 0.444<br/>samples = 3<br/>value = [1, 2, 0]>, fillcolor="#9cf2c0"] ;
770 -> 771 ;
772 [label=<gini = 0.0<br/>samples = 18<br/>value = [0, 18, 0]>, fillcolor="#39e581"] ;
770 -> 772 ;
773 [label=<gini = 0.586<br/>samples = 16<br/>value = [9, 4, 3]>, fillcolor="#f4caac"] ;
765 -> 773 ;
774 [label=<X<SUB>5</SUB> &le; 0.1<br/>gini = 0.606<br/>samples = 46<br/>value = [7, 16, 23]>, fillcolor="#e2d1f9"] ;
764 -> 774 ;
775 [label=<X<SUB>11</SUB> &le; 294216.0<br/>gini = 0.634<br/>samples = 37<br/>value = [7, 16, 14]>, fillcolor="#eefdf4"] ;
774 -> 775 ;
776 [label=<X<SUB>10</SUB> &le; 103.032<br/>gini = 0.611<br/>samples = 25<br/>value = [5, 7, 13]>, fillcolor="#d5bdf6"] ;
775 -> 776 ;
777 [label=<gini = 0.628<br/>samples = 11<br/>value = [4, 5, 2]>, fillcolor="#e3fbed"] ;
776 -> 777 ;
778 [label=<gini = 0.357<br/>samples = 14<br/>value = [1, 2, 11]>, fillcolor="#a06bec"] ;
776 -> 778 ;
779 [label=<gini = 0.403<br/>samples = 12<br/>value = [2, 9, 1]>, fillcolor="#74eda7"] ;
775 -> 779 ;
780 [label=<gini = 0.0<br/>samples = 9<br/>value = [0, 0, 9]>, fillcolor="#8139e5"] ;
774 -> 780 ;
781 [label=<X<SUB>7</SUB> &le; 0.007<br/>gini = 0.439<br/>samples = 28<br/>value = [20, 2, 6]>, fillcolor="#eeaf81"] ;
763 -> 781 ;
782 [label=<gini = 0.117<br/>samples = 16<br/>value = [15, 0, 1]>, fillcolor="#e78946"] ;
781 -> 782 ;
783 [label=<gini = 0.625<br/>samples = 12<br/>value = [5, 2, 5]>, fillcolor="#ffffff"] ;
781 -> 783 ;
784 [label=<X<SUB>10</SUB> &le; 117.284<br/>gini = 0.429<br/>samples = 503<br/>value = [23, 120, 360]>, fillcolor="#b083ef"] ;
526 -> 784 ;
785 [label=<X<SUB>9</SUB> &le; 0.194<br/>gini = 0.228<br/>samples = 290<br/>value = [8, 29, 253]>, fillcolor="#9355e9"] ;
784 -> 785 ;
786 [label=<gini = 0.469<br/>samples = 8<br/>value = [0, 5, 3]>, fillcolor="#b0f5cd"] ;
785 -> 786 ;
787 [label=<X<SUB>1</SUB> &le; 0.933<br/>gini = 0.206<br/>samples = 282<br/>value = [8, 24, 250]>, fillcolor="#9152e8"] ;
785 -> 787 ;
788 [label=<X<SUB>7</SUB> &le; 0.605<br/>gini = 0.186<br/>samples = 276<br/>value = [7, 21, 248]>, fillcolor="#8f4fe8"] ;
787 -> 788 ;
789 [label=<X<SUB>0</SUB> &le; 0.672<br/>gini = 0.366<br/>samples = 77<br/>value = [6, 11, 60]>, fillcolor="#a16cec"] ;
788 -> 789 ;
790 [label=<gini = 0.623<br/>samples = 17<br/>value = [3, 6, 8]>, fillcolor="#e8dbfa"] ;
789 -> 790 ;
791 [label=<X<SUB>5</SUB> &le; 0.148<br/>gini = 0.239<br/>samples = 60<br/>value = [3, 5, 52]>, fillcolor="#9356e9"] ;
789 -> 791 ;
792 [label=<X<SUB>7</SUB> &le; 0.602<br/>gini = 0.216<br/>samples = 59<br/>value = [3, 4, 52]>, fillcolor="#9152e8"] ;
791 -> 792 ;
793 [label=<X<SUB>6</SUB> &le; 0.01<br/>gini = 0.191<br/>samples = 58<br/>value = [3, 3, 52]>, fillcolor="#8f4fe8"] ;
792 -> 793 ;
794 [label=<gini = 0.5<br/>samples = 4<br/>value = [2, 0, 2]>, fillcolor="#ffffff"] ;
793 -> 794 ;
795 [label=<X<SUB>8</SUB> &le; 0.049<br/>gini = 0.139<br/>samples = 54<br/>value = [1, 3, 50]>, fillcolor="#8b49e7"] ;
793 -> 795 ;
796 [label=<gini = 0.5<br/>samples = 2<br/>value = [1, 0, 1]>, fillcolor="#ffffff"] ;
795 -> 796 ;
797 [label=<X<SUB>6</SUB> &le; 0.483<br/>gini = 0.109<br/>samples = 52<br/>value = [0, 3, 49]>, fillcolor="#8945e7"] ;
795 -> 797 ;
798 [label=<X<SUB>1</SUB> &le; 0.4<br/>gini = 0.077<br/>samples = 50<br/>value = [0, 2, 48]>, fillcolor="#8641e6"] ;
797 -> 798 ;
799 [label=<gini = 0.444<br/>samples = 3<br/>value = [0, 1, 2]>, fillcolor="#c09cf2"] ;
798 -> 799 ;
800 [label=<X<SUB>9</SUB> &le; 0.961<br/>gini = 0.042<br/>samples = 47<br/>value = [0, 1, 46]>, fillcolor="#843de6"] ;
798 -> 800 ;
801 [label=<gini = 0.0<br/>samples = 42<br/>value = [0, 0, 42]>, fillcolor="#8139e5"] ;
800 -> 801 ;
802 [label=<gini = 0.32<br/>samples = 5<br/>value = [0, 1, 4]>, fillcolor="#a06aec"] ;
800 -> 802 ;
803 [label=<gini = 0.5<br/>samples = 2<br/>value = [0, 1, 1]>, fillcolor="#ffffff"] ;
797 -> 803 ;
804 [label=<gini = 0.0<br/>samples = 1<br/>value = [0, 1, 0]>, fillcolor="#39e581"] ;
792 -> 804 ;
805 [label=<gini = 0.0<br/>samples = 1<br/>value = [0, 1, 0]>, fillcolor="#39e581"] ;
791 -> 805 ;
806 [label=<X<SUB>11</SUB> &le; 511122.5<br/>gini = 0.105<br/>samples = 199<br/>value = [1, 10, 188]>, fillcolor="#8845e7"] ;
788 -> 806 ;
807 [label=<X<SUB>9</SUB> &le; 0.817<br/>gini = 0.096<br/>samples = 198<br/>value = [1, 9, 188]>, fillcolor="#8843e6"] ;
806 -> 807 ;
808 [label=<X<SUB>12</SUB> &le; 3.5<br/>gini = 0.05<br/>samples = 158<br/>value = [1, 3, 154]>, fillcolor="#843ee6"] ;
807 -> 808 ;
809 [label=<gini = 0.5<br/>samples = 2<br/>value = [0, 1, 1]>, fillcolor="#ffffff"] ;
808 -> 809 ;
810 [label=<X<SUB>5</SUB> &le; 0.027<br/>gini = 0.038<br/>samples = 156<br/>value = [1, 2, 153]>, fillcolor="#833de6"] ;
808 -> 810 ;
811 [label=<gini = 0.278<br/>samples = 6<br/>value = [1, 0, 5]>, fillcolor="#9a61ea"] ;
810 -> 811 ;
812 [label=<X<SUB>2</SUB> &le; 1.5<br/>gini = 0.026<br/>samples = 150<br/>value = [0, 2, 148]>, fillcolor="#833ce5"] ;
810 -> 812 ;
813 [label=<X<SUB>11</SUB> &le; 275578.5<br/>gini = 0.093<br/>samples = 41<br/>value = [0, 2, 39]>, fillcolor="#8743e6"] ;
812 -> 813 ;
814 [label=<gini = 0.0<br/>samples = 30<br/>value = [0, 0, 30]>, fillcolor="#8139e5"] ;
813 -> 814 ;
815 [label=<gini = 0.298<br/>samples = 11<br/>value = [0, 2, 9]>, fillcolor="#9d65eb"] ;
813 -> 815 ;
816 [label=<gini = 0.0<br/>samples = 109<br/>value = [0, 0, 109]>, fillcolor="#8139e5"] ;
812 -> 816 ;
817 [label=<X<SUB>9</SUB> &le; 0.85<br/>gini = 0.255<br/>samples = 40<br/>value = [0, 6, 34]>, fillcolor="#975cea"] ;
807 -> 817 ;
818 [label=<gini = 0.444<br/>samples = 6<br/>value = [0, 4, 2]>, fillcolor="#9cf2c0"] ;
817 -> 818 ;
819 [label=<X<SUB>6</SUB> &le; 0.002<br/>gini = 0.111<br/>samples = 34<br/>value = [0, 2, 32]>, fillcolor="#8945e7"] ;
817 -> 819 ;
820 [label=<gini = 0.0<br/>samples = 1<br/>value = [0, 1, 0]>, fillcolor="#39e581"] ;
819 -> 820 ;
821 [label=<X<SUB>6</SUB> &le; 0.481<br/>gini = 0.059<br/>samples = 33<br/>value = [0, 1, 32]>, fillcolor="#853fe6"] ;
819 -> 821 ;
822 [label=<gini = 0.0<br/>samples = 32<br/>value = [0, 0, 32]>, fillcolor="#8139e5"] ;
821 -> 822 ;
823 [label=<gini = 0.0<br/>samples = 1<br/>value = [0, 1, 0]>, fillcolor="#39e581"] ;
821 -> 823 ;
824 [label=<gini = 0.0<br/>samples = 1<br/>value = [0, 1, 0]>, fillcolor="#39e581"] ;
806 -> 824 ;
825 [label=<gini = 0.611<br/>samples = 6<br/>value = [1, 3, 2]>, fillcolor="#cef8e0"] ;
787 -> 825 ;
826 [label=<X<SUB>5</SUB> &le; 0.038<br/>gini = 0.56<br/>samples = 213<br/>value = [15, 91, 107]>, fillcolor="#eee5fc"] ;
784 -> 826 ;
827 [label=<X<SUB>6</SUB> &le; 0.263<br/>gini = 0.415<br/>samples = 51<br/>value = [0, 36, 15]>, fillcolor="#8bf0b5"] ;
826 -> 827 ;
828 [label=<X<SUB>7</SUB> &le; 0.733<br/>gini = 0.298<br/>samples = 44<br/>value = [0, 36, 8]>, fillcolor="#65eb9d"] ;
827 -> 828 ;
829 [label=<X<SUB>10</SUB> &le; 157.509<br/>gini = 0.074<br/>samples = 26<br/>value = [0, 25, 1]>, fillcolor="#41e686"] ;
828 -> 829 ;
830 [label=<gini = 0.0<br/>samples = 24<br/>value = [0, 24, 0]>, fillcolor="#39e581"] ;
829 -> 830 ;
831 [label=<gini = 0.5<br/>samples = 2<br/>value = [0, 1, 1]>, fillcolor="#ffffff"] ;
829 -> 831 ;
832 [label=<gini = 0.475<br/>samples = 18<br/>value = [0, 11, 7]>, fillcolor="#b7f6d1"] ;
828 -> 832 ;
833 [label=<gini = 0.0<br/>samples = 7<br/>value = [0, 0, 7]>, fillcolor="#8139e5"] ;
827 -> 833 ;
834 [label=<X<SUB>9</SUB> &le; 0.878<br/>gini = 0.554<br/>samples = 162<br/>value = [15, 55, 92]>, fillcolor="#d3bbf6"] ;
826 -> 834 ;
835 [label=<X<SUB>9</SUB> &le; 0.604<br/>gini = 0.537<br/>samples = 134<br/>value = [15, 37, 82]>, fillcolor="#c5a3f3"] ;
834 -> 835 ;
836 [label=<X<SUB>11</SUB> &le; 198928.0<br/>gini = 0.624<br/>samples = 65<br/>value = [11, 25, 29]>, fillcolor="#f2ebfc"] ;
835 -> 836 ;
837 [label=<X<SUB>3</SUB> &le; -7.829<br/>gini = 0.459<br/>samples = 22<br/>value = [6, 1, 15]>, fillcolor="#b890f0"] ;
836 -> 837 ;
838 [label=<gini = 0.24<br/>samples = 15<br/>value = [1, 1, 13]>, fillcolor="#9355e9"] ;
837 -> 838 ;
839 [label=<gini = 0.408<br/>samples = 7<br/>value = [5, 0, 2]>, fillcolor="#efb388"] ;
837 -> 839 ;
840 [label=<X<SUB>6</SUB> &le; 0.007<br/>gini = 0.569<br/>samples = 43<br/>value = [5, 24, 14]>, fillcolor="#bbf6d4"] ;
836 -> 840 ;
841 [label=<gini = 0.449<br/>samples = 7<br/>value = [1, 1, 5]>, fillcolor="#ab7bee"] ;
840 -> 841 ;
842 [label=<X<SUB>9</SUB> &le; 0.538<br/>gini = 0.517<br/>samples = 36<br/>value = [4, 23, 9]>, fillcolor="#98f2be"] ;
840 -> 842 ;
843 [label=<X<SUB>3</SUB> &le; -11.569<br/>gini = 0.406<br/>samples = 24<br/>value = [3, 18, 3]>, fillcolor="#72eca5"] ;
842 -> 843 ;
844 [label=<gini = 0.375<br/>samples = 4<br/>value = [0, 1, 3]>, fillcolor="#ab7bee"] ;
843 -> 844 ;
845 [label=<X<SUB>10</SUB> &le; 122.746<br/>gini = 0.255<br/>samples = 20<br/>value = [3, 17, 0]>, fillcolor="#5cea97"] ;
843 -> 845 ;
846 [label=<gini = 0.49<br/>samples = 7<br/>value = [3, 4, 0]>, fillcolor="#cef8e0"] ;
845 -> 846 ;
847 [label=<gini = 0.0<br/>samples = 13<br/>value = [0, 13, 0]>, fillcolor="#39e581"] ;
845 -> 847 ;
848 [label=<gini = 0.569<br/>samples = 12<br/>value = [1, 5, 6]>, fillcolor="#ede3fb"] ;
842 -> 848 ;
849 [label=<X<SUB>3</SUB> &le; -9.001<br/>gini = 0.376<br/>samples = 69<br/>value = [4, 12, 53]>, fillcolor="#a471ec"] ;
835 -> 849 ;
850 [label=<X<SUB>8</SUB> &le; 0.124<br/>gini = 0.464<br/>samples = 30<br/>value = [0, 11, 19]>, fillcolor="#caacf4"] ;
849 -> 850 ;
851 [label=<X<SUB>3</SUB> &le; -12.78<br/>gini = 0.33<br/>samples = 24<br/>value = [0, 5, 19]>, fillcolor="#a26dec"] ;
850 -> 851 ;
852 [label=<gini = 0.5<br/>samples = 8<br/>value = [0, 4, 4]>, fillcolor="#ffffff"] ;
851 -> 852 ;
